Application:, Trigno Discover (1.7.0)
Date/Time:, 11/4/2024 11:09:45 AM
Collection Length (seconds):, 32.0895
Avanti Sensor 0 (64624), , Avanti Sensor 2 (64680)
sensor mode: 40, , sensor mode: 66
EMG 1 Time Series (s), EMG 1 (mV), EMG 1 Time Series (s), EMG 1 (mV), ORIENTATION W Time Series (s), ORIENTATION W (Quaternions), ORIENTATION X Time Series (s), ORIENTATION X (Quaternions), ORIENTATION Y Time Series (s), ORIENTATION Y (Quaternions), ORIENTATION Z Time Series (s), ORIENTATION Z (Quaternions)
, 2148.1481 Hz, , 1777.7778 Hz, , 74.0741 Hz, , 74.0741 Hz, , 74.0741 Hz, , 74.0741 Hz
0, -0.0095674, 0, -0.0332341, 0, 0.2739868, 0, 0.0383911, 0, -0.6505737, 0, 0.7072144
0.0004655, -0.010071, 0.0005625, -0.0318914, 0.0135, 0.2739868, 0.0135, 0.038269, 0.0135, -0.6506348, 0.0135, 0.7072144
0.000931, -0.0104067, 0.001125, -0.0305486, 0.027, 0.2738647, 0.027, 0.0385742, 0.027, -0.6508179, 0.027, 0.7070312
0.0013966, -0.0115816, 0.0016875, -0.0318914, 0.0405, 0.2739258, 0.0405, 0.0385742, 0.0405, -0.6508789, 0.0405, 0.7069702
0.0018621, -0.0125887, 0.00225, -0.0315557, 0.054, 0.2741699, 0.054, 0.0385742, 0.054, -0.6508789, 0.054, 0.7069092
0.0023276, -0.012253, 0.0028125, -0.0318914, 0.0675, 0.2748413, 0.0675, 0.0379639, 0.0675, -0.6507568, 0.0675, 0.7067871
0.0027931, -0.0120851, 0.003375, -0.0328985, 0.081, 0.2752075, 0.081, 0.0376587, 0.081, -0.6506348, 0.081, 0.7067261
0.0032586, -0.0125887, 0.0039375, -0.0325628, 0.0945, 0.2758179, 0.0945, 0.0369873, 0.0945, -0.6505127, 0.0945, 0.706665
0.0037241, -0.0129244, 0.0045, -0.0305486, 0.108, 0.2758789, 0.108, 0.0368652, 0.108, -0.6505127, 0.108, 0.706665
0.0041897, -0.0115816, 0.0050625, -0.0292058, 0.1215, 0.2758789, 0.1215, 0.0369263, 0.1215, -0.6505737, 0.1215, 0.706604
0.0046552, -0.010071, 0.005625, -0.0265202, 0.135, 0.2757568, 0.135, 0.0370483, 0.135, -0.6506348, 0.135, 0.706604
0.0051207, -0.0102388, 0.0061875, -0.0251774, 0.1485, 0.2758179, 0.1485, 0.0370483, 0.1485, -0.6506348, 0.1485, 0.706543
0.0055862, -0.0119173, 0.00675, -0.024506, 0.162, 0.276001, 0.162, 0.0369263, 0.162, -0.6506348, 0.162, 0.7064819
0.0060517, -0.0134279, 0.0073125, -0.024506, 0.1755, 0.2763062, 0.1755, 0.0365601, 0.1755, -0.6506958, 0.1755, 0.7062988
0.0065172, -0.0129244, 0.007875, -0.0271916, 0.189, 0.2764282, 0.189, 0.036438, 0.189, -0.6507568, 0.189, 0.7062378
0.0069828, -0.0102388, 0.0084375, -0.0258488, 0.2025, 0.2770386, 0.2025, 0.0359497, 0.2025, -0.6506348, 0.2025, 0.7061157
0.0074483, -0.0095674, 0.009, -0.0231632, 0.216, 0.2774048, 0.216, 0.0357056, 0.216, -0.6505737, 0.216, 0.7060547
0.0079138, -0.0105745, 0.0095625, -0.0248417, 0.2295, 0.277771, 0.2295, 0.0355225, 0.2295, -0.6503906, 0.2295, 0.7060547
0.0083793, -0.0105745, 0.010125, -0.0258488, 0.243, 0.2781372, 0.243, 0.0349731, 0.243, -0.6503906, 0.243, 0.7059937
0.0088448, -0.0112459, 0.0106875, -0.0265202, 0.2565, 0.2780762, 0.2565, 0.0349731, 0.2565, -0.6504517, 0.2565, 0.7059937
0.0093103, -0.0124208, 0.01125, -0.027863, 0.27, 0.277771, 0.27, 0.0349731, 0.27, -0.6506348, 0.27, 0.7059326
0.0097759, -0.0117494, 0.0118125, -0.027863, 0.2835, 0.2775879, 0.2835, 0.0350342, 0.2835, -0.6506958, 0.2835, 0.7058716
0.0102414, -0.0102388, 0.012375, -0.0265202, 0.297, 0.2775879, 0.297, 0.0350952, 0.297, -0.6507568, 0.297, 0.7058716
0.0107069, -0.0105745, 0.0129375, -0.0248417, 0.3105, 0.2781982, 0.3105, 0.03479, 0.3105, -0.6505737, 0.3105, 0.7057495
0.0111724, -0.0105745, 0.0135, -0.0251774, 0.324, 0.2785645, 0.324, 0.0346069, 0.324, -0.6504517, 0.324, 0.7057495
0.0116379, -0.0090639, 0.0140625, -0.0258488, 0.3375, 0.2792358, 0.3375, 0.0339355, 0.3375, -0.6502686, 0.3375, 0.7057495
0.0121034, -0.0075532, 0.014625, -0.0275273, 0.351, 0.27948, 0.351, 0.0336304, 0.351, -0.6501465, 0.351, 0.7056885
0.012569, -0.0075532, 0.0151875, -0.027863, 0.3645, 0.279541, 0.3645, 0.0334473, 0.3645, -0.6501465, 0.3645, 0.7056885
0.0130345, -0.0090639, 0.01575, -0.0292058, 0.378, 0.2797241, 0.378, 0.0333862, 0.378, -0.6502075, 0.378, 0.7056274
0.0135, -0.0082246, 0.0163125, -0.0288701, 0.3915, 0.2797241, 0.3915, 0.0334473, 0.3915, -0.6502686, 0.3915, 0.7055664
0.0139655, -0.0072175, 0.016875, -0.027863, 0.405, 0.2799683, 0.405, 0.0333862, 0.405, -0.6502075, 0.405, 0.7055054
0.014431, -0.0078889, 0.0174375, -0.0275273, 0.4185, 0.2802734, 0.4185, 0.0330811, 0.4185, -0.6500854, 0.4185, 0.7055054
0.0148966, -0.0095674, 0.018, -0.0261845, 0.432, 0.2805176, 0.432, 0.0328979, 0.432, -0.6499634, 0.432, 0.7055054
0.0153621, -0.0105745, 0.0185625, -0.0258488, 0.4455, 0.2810059, 0.4455, 0.0324707, 0.4455, -0.6498413, 0.4455, 0.7055054
0.0158276, -0.0104067, 0.019125, -0.0255131, 0.459, 0.281189, 0.459, 0.0323486, 0.459, -0.6498413, 0.459, 0.7054443
0.0162931, -0.0104067, 0.0196875, -0.024506, 0.4725, 0.28125, 0.4725, 0.0324097, 0.4725, -0.6498413, 0.4725, 0.7053833
0.0167586, -0.0115816, 0.02025, -0.0224918, 0.486, 0.2813721, 0.486, 0.0322876, 0.486, -0.6497803, 0.486, 0.7053833
0.0172241, -0.0109102, 0.0208125, -0.0224918, 0.4995, 0.2813721, 0.4995, 0.0323486, 0.4995, -0.6498413, 0.4995, 0.7053223
0.0176897, -0.0102388, 0.021375, -0.0261845, 0.513, 0.2814331, 0.513, 0.0325317, 0.513, -0.6499023, 0.513, 0.7052612
0.0181552, -0.0102388, 0.0219375, -0.027863, 0.5265, 0.2814331, 0.5265, 0.0325317, 0.5265, -0.6499023, 0.5265, 0.7052002
0.0186207, -0.0109102, 0.0225, -0.0275273, 0.54, 0.2816162, 0.54, 0.0324097, 0.54, -0.6499023, 0.54, 0.7052002
0.0190862, -0.012253, 0.0230625, -0.0261845, 0.5535, 0.2824097, 0.5535, 0.0319214, 0.5535, -0.6496582, 0.5535, 0.7051392
0.0195517, -0.0125887, 0.023625, -0.0248417, 0.567, 0.2828369, 0.567, 0.0315552, 0.567, -0.6494751, 0.567, 0.7050781
0.0200172, -0.0125887, 0.0241875, -0.0268559, 0.5805, 0.2831421, 0.5805, 0.031189, 0.5805, -0.6494141, 0.5805, 0.7050171
0.0204828, -0.0117494, 0.02475, -0.0275273, 0.594, 0.2830811, 0.594, 0.031311, 0.594, -0.6494751, 0.594, 0.7050171
0.0209483, -0.010071, 0.0253125, -0.0271916, 0.6075, 0.2830811, 0.6075, 0.0314331, 0.6075, -0.6495361, 0.6075, 0.7049561
0.0214138, -0.0087282, 0.025875, -0.0265202, 0.621, 0.2833252, 0.621, 0.0314331, 0.621, -0.6495361, 0.621, 0.704895
0.0218793, -0.0095674, 0.0264375, -0.0248417, 0.6345, 0.2833862, 0.6345, 0.0313721, 0.6345, -0.6494751, 0.6345, 0.704895
0.0223448, -0.0115816, 0.027, -0.0248417, 0.648, 0.2830811, 0.648, 0.0316162, 0.648, -0.6496582, 0.648, 0.704895
0.0228103, -0.0120851, 0.0275625, -0.0248417, 0.6615, 0.282959, 0.6615, 0.0318604, 0.6615, -0.6497192, 0.6615, 0.704834
0.0232759, -0.0099031, 0.028125, -0.0258488, 0.675, 0.2828369, 0.675, 0.0319824, 0.675, -0.6497803, 0.675, 0.704834
0.0237414, -0.0082246, 0.0286875, -0.0281987, 0.6885, 0.28302, 0.6885, 0.0319214, 0.6885, -0.6497803, 0.6885, 0.7047729
0.0242069, -0.0085603, 0.02925, -0.0275273, 0.702, 0.2833252, 0.702, 0.0317383, 0.702, -0.6496582, 0.702, 0.7047729
0.0246724, -0.0095674, 0.0298125, -0.0271916, 0.7155, 0.2837524, 0.7155, 0.0314941, 0.7155, -0.6495361, 0.7155, 0.7047119
0.0251379, -0.0105745, 0.030375, -0.027863, 0.729, 0.2843018, 0.729, 0.0309448, 0.729, -0.649353, 0.729, 0.7046509
0.0256034, -0.011078, 0.0309375, -0.0251774, 0.7425, 0.2843628, 0.7425, 0.0308228, 0.7425, -0.649353, 0.7425, 0.7046509
0.026069, -0.0112459, 0.0315, -0.0251774, 0.756, 0.2841187, 0.756, 0.0309448, 0.756, -0.6495361, 0.756, 0.7045288
0.0265345, -0.0095674, 0.0320625, -0.0285344, 0.7695, 0.2838745, 0.7695, 0.031189, 0.7695, -0.6497192, 0.7695, 0.7045288
0.027, -0.0095674, 0.032625, -0.0275273, 0.783, 0.2838745, 0.783, 0.031311, 0.783, -0.6497192, 0.783, 0.7044678
0.0274655, -0.0102388, 0.0331875, -0.0251774, 0.7965, 0.2843628, 0.7965, 0.031189, 0.7965, -0.6494751, 0.7965, 0.7045288
0.027931, -0.0109102, 0.03375, -0.024506, 0.81, 0.2849731, 0.81, 0.0307617, 0.81, -0.6491699, 0.81, 0.7045898
0.0283966, -0.0114137, 0.0343125, -0.0251774, 0.8235, 0.2858887, 0.8235, 0.0298462, 0.8235, -0.6487427, 0.8235, 0.7046509
0.0288621, -0.0099031, 0.034875, -0.0251774, 0.837, 0.2860107, 0.837, 0.029541, 0.837, -0.6486816, 0.837, 0.7046509
0.0293276, -0.0082246, 0.0354375, -0.024506, 0.8505, 0.2859497, 0.8505, 0.029541, 0.8505, -0.6486816, 0.8505, 0.7046509
0.0297931, -0.0082246, 0.036, -0.0238346, 0.864, 0.2855225, 0.864, 0.0299683, 0.864, -0.6488037, 0.864, 0.7047119
0.0302586, -0.0082246, 0.0365625, -0.0238346, 0.8775, 0.2854614, 0.8775, 0.0300903, 0.8775, -0.6488037, 0.8775, 0.7047729
0.0307241, -0.0068818, 0.037125, -0.0234989, 0.891, 0.2861328, 0.891, 0.0299683, 0.891, -0.6484375, 0.891, 0.7047729
0.0311897, -0.0063783, 0.0376875, -0.0228275, 0.9045, 0.2867432, 0.9045, 0.02948, 0.9045, -0.6481934, 0.9045, 0.7047729
0.0316552, -0.0068818, 0.03825, -0.0231632, 0.918, 0.2873535, 0.918, 0.0289917, 0.918, -0.6479492, 0.918, 0.7047729
0.0321207, -0.0070497, 0.0388125, -0.0218204, 0.9315, 0.2880859, 0.9315, 0.0281982, 0.9315, -0.6477661, 0.9315, 0.7047119
0.0325862, -0.0070497, 0.039375, -0.0218204, 0.945, 0.2880859, 0.945, 0.0280762, 0.945, -0.6477661, 0.945, 0.7047119
0.0330517, -0.006714, 0.0399375, -0.0214847, 0.9585, 0.2880249, 0.9585, 0.0282593, 0.9585, -0.6478271, 0.9585, 0.7046509
0.0335172, -0.0068818, 0.0405, -0.021149, 0.972, 0.2880859, 0.972, 0.0283813, 0.972, -0.6478271, 0.972, 0.7046509
0.0339828, -0.0072175, 0.0410625, -0.0218204, 0.9855, 0.288147, 0.9855, 0.0283813, 0.9855, -0.6477661, 0.9855, 0.7047119
0.0344483, -0.0092317, 0.041625, -0.0224918, 0.999, 0.2888794, 0.999, 0.0278931, 0.999, -0.647583, 0.999, 0.7045898
0.0349138, -0.0102388, 0.0421875, -0.0251774, 1.0125, 0.2894897, 1.0125, 0.0274658, 1.0125, -0.6473389, 1.0125, 0.7045898
0.0353793, -0.0092317, 0.04275, -0.0275273, 1.026, 0.2901001, 1.026, 0.0268555, 1.026, -0.6470337, 1.026, 0.7045898
0.0358448, -0.0099031, 0.0433125, -0.0271916, 1.0395, 0.2909546, 1.0395, 0.026062, 1.0395, -0.6466675, 1.0395, 0.7045898
0.0363103, -0.0102388, 0.043875, -0.0265202, 1.053, 0.2911377, 1.053, 0.026001, 1.053, -0.6466675, 1.053, 0.7045898
0.0367759, -0.0109102, 0.0444375, -0.0255131, 1.0665, 0.2910156, 1.0665, 0.0263672, 1.0665, -0.6468506, 1.0665, 0.7044067
0.0372414, -0.0105745, 0.045, -0.0258488, 1.08, 0.2912598, 1.08, 0.0263672, 1.08, -0.6467896, 1.08, 0.7043457
0.0377069, -0.0099031, 0.0455625, -0.0288701, 1.0935, 0.291626, 1.0935, 0.0263062, 1.0935, -0.6466675, 1.0935, 0.7043457
0.0381724, -0.0095674, 0.046125, -0.0275273, 1.107, 0.2928467, 1.107, 0.0255127, 1.107, -0.6461792, 1.107, 0.7042847
0.0386379, -0.0105745, 0.0466875, -0.0265202, 1.1205, 0.2935181, 1.1205, 0.0248413, 1.1205, -0.645874, 1.1205, 0.7043457
0.0391034, -0.0095674, 0.04725, -0.0285344, 1.134, 0.2946167, 1.134, 0.0238037, 1.134, -0.6456299, 1.134, 0.7041016
0.039569, -0.0075532, 0.0478125, -0.0292058, 1.1475, 0.295105, 1.1475, 0.0234375, 1.1475, -0.6455688, 1.1475, 0.7039795
0.0400345, -0.0072175, 0.048375, -0.03122, 1.161, 0.2953491, 1.161, 0.0232544, 1.161, -0.6455078, 1.161, 0.7039185
0.0405, -0.0072175, 0.0489375, -0.0318914, 1.1745, 0.2958374, 1.1745, 0.0230103, 1.1745, -0.6455078, 1.1745, 0.7037354
0.0409655, -0.0062104, 0.0495, -0.0302129, 1.188, 0.2962036, 1.188, 0.0227661, 1.188, -0.6454468, 1.188, 0.7036743
0.041431, -0.0065461, 0.0500625, -0.0288701, 1.2015, 0.2973022, 1.2015, 0.0217896, 1.2015, -0.6452026, 1.2015, 0.7034912
0.0418966, -0.008896, 0.050625, -0.0292058, 1.215, 0.2980347, 1.215, 0.0211792, 1.215, -0.6450195, 1.215, 0.7033691
0.0423621, -0.008896, 0.0511875, -0.0302129, 1.2285, 0.2988892, 1.2285, 0.0204468, 1.2285, -0.6446533, 1.2285, 0.7033081
0.0428276, -0.0072175, 0.05175, -0.0292058, 1.242, 0.3009644, 1.242, 0.0187378, 1.242, -0.6438599, 1.242, 0.7032471
0.0432931, -0.0068818, 0.0523125, -0.0285344, 1.2555, 0.3017578, 1.2555, 0.0181885, 1.2555, -0.6434326, 1.2555, 0.7033081
0.0437586, -0.0082246, 0.052875, -0.0285344, 1.269, 0.3024292, 1.269, 0.0178223, 1.269, -0.6430664, 1.269, 0.7033691
0.0442241, -0.0109102, 0.0534375, -0.0288701, 1.2825, 0.3032227, 1.2825, 0.017334, 1.2825, -0.6425781, 1.2825, 0.7034912
0.0446897, -0.012253, 0.054, -0.0305486, 1.296, 0.3033447, 1.296, 0.017334, 1.296, -0.6425171, 1.296, 0.7034912
0.0451552, -0.0112459, 0.0545625, -0.0325628, 1.3095, 0.3040161, 1.3095, 0.0170898, 1.3095, -0.6420898, 1.3095, 0.7035522
0.0456207, -0.008896, 0.055125, -0.03122, 1.323, 0.3047485, 1.323, 0.0166016, 1.323, -0.6416626, 1.323, 0.7036133
0.0460862, -0.0072175, 0.0556875, -0.03122, 1.3365, 0.3058472, 1.3365, 0.0158081, 1.3365, -0.6410522, 1.3365, 0.7037964
0.0465517, -0.0095674, 0.05625, -0.0305486, 1.35, 0.3078613, 1.35, 0.0144653, 1.35, -0.6398926, 1.35, 0.7039795
0.0470172, -0.0107424, 0.0568125, -0.0298772, 1.3635, 0.3085327, 1.3635, 0.0140991, 1.3635, -0.6395264, 1.3635, 0.7039795
0.0474828, -0.0093996, 0.057375, -0.0302129, 1.377, 0.3098145, 1.377, 0.0133057, 1.377, -0.6387939, 1.377, 0.7041016
0.0479483, -0.0095674, 0.0579375, -0.0305486, 1.3905, 0.3102417, 1.3905, 0.0129395, 1.3905, -0.6384888, 1.3905, 0.7041626
0.0484138, -0.0109102, 0.0585, -0.0318914, 1.404, 0.3105469, 1.404, 0.0127563, 1.404, -0.6383057, 1.404, 0.7042236
0.0488793, -0.0092317, 0.0590625, -0.0318914, 1.4175, 0.3115845, 1.4175, 0.012207, 1.4175, -0.6378784, 1.4175, 0.7042236
0.0493448, -0.0075532, 0.059625, -0.027863, 1.431, 0.3123169, 1.431, 0.0117798, 1.431, -0.6375122, 1.431, 0.7042236
0.0498103, -0.0083925, 0.0601875, -0.0258488, 1.4445, 0.3140869, 1.4445, 0.010437, 1.4445, -0.6365967, 1.4445, 0.7042236
0.0502759, -0.0115816, 0.06075, -0.0251774, 1.458, 0.3149414, 1.458, 0.0097656, 1.458, -0.6362915, 1.458, 0.7041626
0.0507414, -0.0142672, 0.0613125, -0.0271916, 1.4715, 0.315979, 1.4715, 0.0089111, 1.4715, -0.6358643, 1.4715, 0.7041016
0.0512069, -0.0135958, 0.061875, -0.027863, 1.485, 0.3187866, 1.485, 0.0062866, 1.485, -0.6347046, 1.485, 0.7039185
0.0516724, -0.0097353, 0.0624375, -0.024506, 1.4985, 0.3201294, 1.4985, 0.0048828, 1.4985, -0.6341553, 1.4985, 0.7037964
0.0521379, -0.0082246, 0.063, -0.0224918, 1.512, 0.3212891, 1.512, 0.0037231, 1.512, -0.633606, 1.512, 0.7037354
0.0526034, -0.0092317, 0.0635625, -0.0231632, 1.5255, 0.3228149, 1.5255, 0.0023804, 1.5255, -0.6331787, 1.5255, 0.7034302
0.053069, -0.0077211, 0.064125, -0.0241703, 1.539, 0.3231812, 1.539, 0.0020752, 1.539, -0.6331177, 1.539, 0.7033691
0.0535345, -0.0053712, 0.0646875, -0.0234989, 1.5525, 0.3240356, 1.5525, 0.0016479, 1.5525, -0.6331177, 1.5525, 0.7029419
0.054, -0.0057069, 0.06525, -0.0231632, 1.566, 0.3249512, 1.566, 0.0012207, 1.566, -0.6329956, 1.566, 0.7026978
0.0544655, -0.0073854, 0.0658125, -0.0238346, 1.5795, 0.326416, 1.5795, 0.0003662, 1.5795, -0.6326294, 1.5795, 0.7023315
0.054931, -0.0072175, 0.066375, -0.0238346, 1.593, 0.3320312, 1.593, -0.003479, 1.593, -0.630249, 1.593, 0.7017822
0.0553966, -0.0057069, 0.0669375, -0.0231632, 1.6065, 0.3355103, 1.6065, -0.0062256, 1.6065, -0.628479, 1.6065, 0.7017212
0.0558621, -0.0045319, 0.0675, -0.0234989, 1.62, 0.3433228, 1.62, -0.0114746, 1.62, -0.6239014, 1.62, 0.7019653
0.0563276, -0.005539, 0.0680625, -0.0255131, 1.6335, 0.3475952, 1.6335, -0.0137939, 1.6335, -0.6212158, 1.6335, 0.7022095
0.0567931, -0.0085603, 0.068625, -0.0258488, 1.647, 0.3511963, 1.647, -0.0149536, 1.647, -0.6188354, 1.647, 0.7024536
0.0572586, -0.0104067, 0.0691875, -0.0261845, 1.6605, 0.357666, 1.6605, -0.0151978, 1.6605, -0.614502, 1.6605, 0.7030029
0.0577241, -0.0097353, 0.06975, -0.0271916, 1.674, 0.3614502, 1.674, -0.0151367, 1.674, -0.6120605, 1.674, 0.7032471
0.0581897, -0.008896, 0.0703125, -0.0248417, 1.6875, 0.3708496, 1.6875, -0.0158691, 1.6875, -0.6054077, 1.6875, 0.7040405
0.0586552, -0.0092317, 0.070875, -0.0251774, 1.701, 0.3764648, 1.701, -0.0164185, 1.701, -0.6009521, 1.701, 0.704895
0.0591207, -0.0105745, 0.0714375, -0.0251774, 1.7145, 0.3826294, 1.7145, -0.0167847, 1.7145, -0.5956421, 1.7145, 0.7060547
0.0595862, -0.0109102, 0.072, -0.0258488, 1.728, 0.3967285, 1.728, -0.0167847, 1.728, -0.5827637, 1.728, 0.7090454
0.0600517, -0.0093996, 0.0725625, -0.0265202, 1.7415, 0.4047241, 1.7415, -0.0170288, 1.7415, -0.5749512, 1.7415, 0.7108765
0.0605172, -0.0080568, 0.073125, -0.0234989, 1.755, 0.4217529, 1.755, -0.0172729, 1.755, -0.5570679, 1.755, 0.71521
0.0609828, -0.008896, 0.0736875, -0.0238346, 1.7685, 0.4302979, 1.7685, -0.0167236, 1.7685, -0.5473633, 1.7685, 0.7175903
0.0614483, -0.011078, 0.07425, -0.0258488, 1.782, 0.4390869, 1.782, -0.0160522, 1.782, -0.5368652, 1.782, 0.7202148
0.0619138, -0.0142672, 0.0748125, -0.0251774, 1.7955, 0.4580078, 1.7955, -0.0150146, 1.7955, -0.5128784, 1.7955, 0.7258911
0.0623793, -0.0151064, 0.075375, -0.0265202, 1.809, 0.4678345, 1.809, -0.0151367, 1.809, -0.4991455, 1.809, 0.729248
0.0628448, -0.0146029, 0.0759375, -0.0258488, 1.8225, 0.4776611, 1.8225, -0.0151978, 1.8225, -0.4844971, 1.8225, 0.732666
0.0633103, -0.0135958, 0.0765, -0.024506, 1.836, 0.4969482, 1.836, -0.0140381, 1.836, -0.4528198, 1.836, 0.7401123
0.0637759, -0.0129244, 0.0770625, -0.0241703, 1.8495, 0.5055542, 1.8495, -0.0125732, 1.8495, -0.4364624, 1.8495, 0.7441406
0.0642414, -0.012253, 0.077625, -0.0241703, 1.863, 0.5204468, 1.863, -0.0070801, 1.863, -0.4035645, 1.863, 0.7524414
0.0647069, -0.012253, 0.0781875, -0.0265202, 1.8765, 0.5267944, 1.8765, -0.0023193, 1.8765, -0.3875732, 1.8765, 0.7565308
0.0651724, -0.0129244, 0.07875, -0.0292058, 1.89, 0.5324097, 1.89, 0.003479, 1.89, -0.3716431, 1.89, 0.7605591
0.0656379, -0.0125887, 0.0793125, -0.0292058, 1.9035, 0.5418701, 1.9035, 0.0172729, 1.9035, -0.3399048, 1.9035, 0.7684937
0.0661034, -0.0132601, 0.079875, -0.027863, 1.917, 0.5459595, 1.917, 0.0247192, 1.917, -0.3238525, 1.917, 0.7722778
0.066569, -0.0149386, 0.0804375, -0.0285344, 1.9305, 0.5497437, 1.9305, 0.0322876, 1.9305, -0.3075562, 1.9305, 0.7759399
0.0670345, -0.0161135, 0.081, -0.0271916, 1.944, 0.5560913, 1.944, 0.0471802, 1.944, -0.2739868, 1.944, 0.7832031
0.0675, -0.014435, 0.0815625, -0.0271916, 1.9575, 0.5584717, 1.9575, 0.0551147, 1.9575, -0.2571411, 1.9575, 0.7867432
0.0679655, -0.0115816, 0.082125, -0.03122, 1.971, 0.5615234, 1.971, 0.0726318, 1.971, -0.2241821, 1.971, 0.7931519
0.068431, -0.0105745, 0.0826875, -0.0328985, 1.9845, 0.5626221, 1.9845, 0.0824585, 1.9845, -0.2079468, 1.9845, 0.7958984
0.0688966, -0.0117494, 0.08325, -0.0292058, 1.998, 0.5633545, 1.998, 0.0918579, 1.998, -0.1912842, 1.998, 0.7984619
0.0693621, -0.0130922, 0.0838125, -0.0261845, 2.0115, 0.5629883, 2.0115, 0.1117554, 2.0115, -0.1595459, 2.0115, 0.8031616
0.0698276, -0.012253, 0.084375, -0.0285344, 2.025, 0.562439, 2.025, 0.1217651, 2.025, -0.1439819, 2.025, 0.8050537
0.0702931, -0.010071, 0.0849375, -0.0298772, 2.0385, 0.5602417, 2.0385, 0.1418457, 2.0385, -0.1130981, 2.0385, 0.8082275
0.0707586, -0.0087282, 0.0855, -0.0288701, 2.052, 0.5587769, 2.052, 0.152832, 2.052, -0.0977783, 2.052, 0.8092041
0.0712241, -0.0083925, 0.0860625, -0.027863, 2.0655, 0.5571899, 2.0655, 0.1634521, 2.0655, -0.0829468, 2.0655, 0.8098755
0.0716897, -0.0068818, 0.086625, -0.0271916, 2.079, 0.553772, 2.079, 0.182312, 2.079, -0.0519409, 2.079, 0.810791
0.0721552, -0.0052033, 0.0871875, -0.0251774, 2.0925, 0.5515137, 2.0925, 0.1912842, 2.0925, -0.0365601, 2.0925, 0.8111572
0.0726207, -0.0053712, 0.08775, -0.0251774, 2.106, 0.5462646, 2.106, 0.2084351, 2.106, -0.0048828, 2.106, 0.8112793
0.0730862, -0.0072175, 0.0883125, -0.0271916, 2.1195, 0.5432739, 2.1195, 0.2161255, 2.1195, 0.0115967, 2.1195, 0.8111572
0.0735517, -0.0083925, 0.088875, -0.0271916, 2.133, 0.539978, 2.133, 0.2234497, 2.133, 0.0278931, 2.133, 0.8110352
0.0740172, -0.008896, 0.0894375, -0.0255131, 2.1465, 0.5326538, 2.1465, 0.2375488, 2.1465, 0.0599976, 2.1465, 0.8101196
0.0744828, -0.0085603, 0.09, -0.0271916, 2.16, 0.5285645, 2.16, 0.2443848, 2.16, 0.0755005, 2.16, 0.8094482
0.0749483, -0.0070497, 0.0905625, -0.0285344, 2.1735, 0.5202637, 2.1735, 0.258667, 2.1735, 0.1043091, 2.1735, 0.8071899
0.0754138, -0.0068818, 0.091125, -0.0285344, 2.187, 0.5164795, 2.187, 0.2664795, 2.187, 0.1187134, 2.187, 0.8051147
0.0758793, -0.0075532, 0.0916875, -0.0298772, 2.2005, 0.5124512, 2.2005, 0.2721558, 2.2005, 0.1333618, 2.2005, 0.8034668
0.0763448, -0.0068818, 0.09225, -0.0285344, 2.214, 0.5028076, 2.214, 0.2817383, 2.214, 0.1636963, 2.214, 0.8006592
0.0768103, -0.0050355, 0.0928125, -0.0258488, 2.2275, 0.4968872, 2.2275, 0.2860718, 2.2275, 0.1784668, 2.2275, 0.7996216
0.0772759, -0.0038605, 0.093375, -0.0271916, 2.241, 0.491272, 2.241, 0.291748, 2.241, 0.192627, 2.241, 0.7977295
0.0777414, -0.006714, 0.0939375, -0.027863, 2.2545, 0.4803467, 2.2545, 0.3028564, 2.2545, 0.2192993, 2.2545, 0.793396
0.0782069, -0.0102388, 0.0945, -0.0285344, 2.268, 0.4750977, 2.268, 0.3087769, 2.268, 0.2321167, 2.268, 0.7906494
0.0786724, -0.0114137, 0.0950625, -0.0265202, 2.2815, 0.4647217, 2.2815, 0.3195801, 2.2815, 0.2578735, 2.2815, 0.7844849
0.0791379, -0.0112459, 0.095625, -0.0251774, 2.295, 0.4588623, 2.295, 0.3228149, 2.295, 0.2717285, 2.295, 0.7819214
0.0796034, -0.0114137, 0.0961875, -0.0265202, 2.3085, 0.4447021, 2.3085, 0.3269653, 2.3085, 0.3005371, 2.3085, 0.777832
0.080069, -0.0117494, 0.09675, -0.0271916, 2.322, 0.4366455, 2.322, 0.3285522, 2.322, 0.3151855, 2.322, 0.7759399
0.0805345, -0.0109102, 0.0973125, -0.0261845, 2.3355, 0.4287109, 2.3355, 0.3311157, 2.3355, 0.3287964, 2.3355, 0.7736206
0.081, -0.0102388, 0.097875, -0.0258488, 2.349, 0.4144287, 2.349, 0.3381958, 2.349, 0.3519897, 2.349, 0.7681274
0.0814655, -0.0105745, 0.0984375, -0.0238346, 2.3625, 0.4090576, 2.3625, 0.3434448, 2.3625, 0.3613281, 2.3625, 0.7642822
0.081931, -0.0109102, 0.099, -0.0224918, 2.376, 0.4046631, 2.376, 0.3500366, 2.376, 0.3695068, 2.376, 0.7597046
0.0823966, -0.0115816, 0.0995625, -0.0231632, 2.3895, 0.3994141, 2.3895, 0.3655396, 2.3895, 0.3795166, 2.3895, 0.7501831
0.0828621, -0.011078, 0.100125, -0.0238346, 2.403, 0.3983154, 2.403, 0.3728027, 2.403, 0.3827515, 2.403, 0.7455444
0.0833276, -0.0105745, 0.1006875, -0.0238346, 2.4165, 0.3954468, 2.4165, 0.3800049, 2.4165, 0.3884888, 2.4165, 0.7404785
0.0837931, -0.0099031, 0.10125, -0.024506, 2.43, 0.3936157, 2.43, 0.3812866, 2.43, 0.3911133, 2.43, 0.7393799
0.0842586, -0.0105745, 0.1018125, -0.0241703, 2.4435, 0.3919678, 2.4435, 0.3821411, 2.4435, 0.3936768, 2.4435, 0.7384644
0.0847241, -0.0112459, 0.102375, -0.0251774, 2.457, 0.3936768, 2.457, 0.3867188, 2.457, 0.3939819, 2.457, 0.7349854
0.0851897, -0.0119173, 0.1029375, -0.0271916, 2.4705, 0.3965454, 2.4705, 0.3893433, 2.4705, 0.3916016, 2.4705, 0.7333374
0.0856552, -0.0135958, 0.1035, -0.0258488, 2.484, 0.4041138, 2.484, 0.3937378, 2.484, 0.3834229, 2.484, 0.7312012
0.0861207, -0.0119173, 0.1040625, -0.0261845, 2.4975, 0.4082642, 2.4975, 0.3955078, 2.4975, 0.3782959, 2.4975, 0.7305908
0.0865862, -0.0105745, 0.104625, -0.0258488, 2.511, 0.411438, 2.511, 0.3953857, 2.511, 0.3735962, 2.511, 0.7313232
0.0870517, -0.0109102, 0.1051875, -0.0248417, 2.5245, 0.4155273, 2.5245, 0.3900757, 2.5245, 0.3637695, 2.5245, 0.7367554
0.0875172, -0.011078, 0.10575, -0.0261845, 2.538, 0.4176025, 2.538, 0.3869629, 2.538, 0.3572998, 2.538, 0.7404175
0.0879828, -0.0099031, 0.1063125, -0.0251774, 2.5515, 0.4248047, 2.5515, 0.3839722, 2.5515, 0.3409424, 2.5515, 0.7456055
0.0884483, -0.0075532, 0.106875, -0.0234989, 2.565, 0.4287109, 2.565, 0.3818359, 2.565, 0.3322754, 2.565, 0.7483521
0.0889138, -0.0083925, 0.1074375, -0.024506, 2.5785, 0.4330444, 2.5785, 0.3797607, 2.5785, 0.3236694, 2.5785, 0.7506714
0.0893793, -0.0105745, 0.108, -0.0258488, 2.592, 0.4404907, 2.592, 0.3735352, 2.592, 0.3057251, 2.592, 0.756958
0.0898448, -0.0102388, 0.1085625, -0.0265202, 2.6055, 0.4443359, 2.6055, 0.3707886, 2.6055, 0.2957153, 2.6055, 0.7600098
0.0903103, -0.008896, 0.109125, -0.027863, 2.619, 0.4483032, 2.619, 0.3685303, 2.619, 0.2852173, 2.619, 0.7628174
0.0907759, -0.008896, 0.1096875, -0.0298772, 2.6325, 0.4561768, 2.6325, 0.3631592, 2.6325, 0.2642212, 2.6325, 0.7682495
0.0912414, -0.0099031, 0.11025, -0.0298772, 2.646, 0.4602051, 2.646, 0.3605957, 2.646, 0.25354, 2.646, 0.7706299
0.0917069, -0.0099031, 0.1108125, -0.0292058, 2.6595, 0.4677124, 2.6595, 0.3540039, 2.6595, 0.2322998, 2.6595, 0.7758789
0.0921724, -0.0102388, 0.111375, -0.0288701, 2.673, 0.4714966, 2.673, 0.350708, 2.673, 0.2217407, 2.673, 0.7781982
0.0926379, -0.0093996, 0.1119375, -0.0295415, 2.6865, 0.4749146, 2.6865, 0.3464966, 2.6865, 0.211731, 2.6865, 0.7807007
0.0931034, -0.0078889, 0.1125, -0.0292058, 2.7, 0.4811401, 2.7, 0.3377686, 2.7, 0.1913452, 2.7, 0.7860107
0.093569, -0.0072175, 0.1130625, -0.0298772, 2.7135, 0.4840698, 2.7135, 0.3336182, 2.7135, 0.1802368, 2.7135, 0.7886353
0.0940345, -0.0078889, 0.113625, -0.0292058, 2.727, 0.4900513, 2.727, 0.328186, 2.727, 0.1585083, 2.727, 0.7918091
0.0945, -0.0082246, 0.1141875, -0.027863, 2.7405, 0.4921265, 2.7405, 0.3234863, 2.7405, 0.149292, 2.7405, 0.7942505
0.0949655, -0.0075532, 0.11475, -0.0271916, 2.754, 0.4942627, 2.754, 0.3190918, 2.754, 0.1401978, 2.754, 0.7963867
0.095431, -0.0065461, 0.1153125, -0.0285344, 2.7675, 0.4984741, 2.7675, 0.3097534, 2.7675, 0.1225586, 2.7675, 0.800354
0.0958966, -0.0072175, 0.115875, -0.0305486, 2.781, 0.5009766, 2.781, 0.3064575, 2.781, 0.1132202, 2.781, 0.8014526
0.0963621, -0.0077211, 0.1164375, -0.0298772, 2.7945, 0.5060425, 2.7945, 0.3027954, 2.7945, 0.0930786, 2.7945, 0.8022461
0.0968276, -0.0082246, 0.117, -0.0285344, 2.808, 0.5078735, 2.808, 0.2989502, 2.808, 0.0840454, 2.808, 0.8035278
0.0972931, -0.008896, 0.1175625, -0.0271916, 2.8215, 0.5097656, 2.8215, 0.2944946, 2.8215, 0.0758667, 2.8215, 0.8047485
0.0977586, -0.0109102, 0.118125, -0.0258488, 2.835, 0.5128174, 2.835, 0.2842407, 2.835, 0.0604248, 2.835, 0.8078003
0.0982241, -0.012253, 0.1186875, -0.0285344, 2.8485, 0.5140991, 2.8485, 0.2791748, 2.8485, 0.0529175, 2.8485, 0.8093262
0.0986897, -0.0112459, 0.11925, -0.0305486, 2.862, 0.5159912, 2.862, 0.2710571, 2.862, 0.036377, 2.862, 0.8117676
0.0991552, -0.0105745, 0.1198125, -0.0292058, 2.8755, 0.5169067, 2.8755, 0.2681885, 2.8755, 0.0272217, 2.8755, 0.8125
0.0996207, -0.0097353, 0.120375, -0.027863, 2.889, 0.5178833, 2.889, 0.2654419, 2.889, 0.0175171, 2.889, 0.8130493
0.1000862, -0.008896, 0.1209375, -0.0271916, 2.9025, 0.520752, 2.9025, 0.2595215, 2.9025, -0.0014648, 2.9025, 0.8132935
0.1005517, -0.0085603, 0.1215, -0.0275273, 2.916, 0.5223389, 2.916, 0.2550659, 2.916, -0.0097046, 2.916, 0.8136597
0.1010172, -0.0090639, 0.1220625, -0.027863, 2.9295, 0.5238647, 2.9295, 0.25, 2.9295, -0.0175171, 2.9295, 0.8140869
0.1014828, -0.008896, 0.122625, -0.0285344, 2.943, 0.5256958, 2.943, 0.2387085, 2.943, -0.0337524, 2.943, 0.8157959
0.1019483, -0.008896, 0.1231875, -0.0285344, 2.9565, 0.5262451, 2.9565, 0.2345581, 2.9565, -0.0425415, 2.9565, 0.8162231
0.1024138, -0.0095674, 0.12375, -0.0265202, 2.97, 0.5269775, 2.97, 0.2263184, 2.97, -0.0609741, 2.97, 0.8169556
0.1028793, -0.0095674, 0.1243125, -0.0248417, 2.9835, 0.5273438, 2.9835, 0.2219238, 2.9835, -0.0700684, 2.9835, 0.8171387
0.1033448, -0.0090639, 0.124875, -0.0261845, 2.997, 0.5281372, 2.997, 0.2171021, 2.997, -0.0786133, 2.997, 0.8171387
0.1038103, -0.0095674, 0.1254375, -0.0265202, 3.0105, 0.5303955, 3.0105, 0.2063599, 3.0105, -0.0940552, 3.0105, 0.8168945
0.1042759, -0.0104067, 0.126, -0.0251774, 3.024, 0.53125, 3.024, 0.2009888, 3.024, -0.1016846, 3.024, 0.8167725
0.1047414, -0.0082246, 0.1265625, -0.0251774, 3.0375, 0.5314941, 3.0375, 0.1906738, 3.0375, -0.1177368, 3.0375, 0.8168945
0.1052069, -0.0068818, 0.127125, -0.0238346, 3.051, 0.5313721, 3.051, 0.1867065, 3.051, -0.126709, 3.051, 0.8165283
0.1056724, -0.0078889, 0.1276875, -0.0241703, 3.0645, 0.531189, 3.0645, 0.1824341, 3.0645, -0.135498, 3.0645, 0.8161621
0.1061379, -0.008896, 0.12825, -0.0251774, 3.078, 0.5310059, 3.078, 0.1737061, 3.078, -0.1520386, 3.078, 0.8153076
0.1066034, -0.0092317, 0.1288125, -0.024506, 3.0915, 0.5309448, 3.0915, 0.1694946, 3.0915, -0.1600342, 3.0915, 0.8146973
0.107069, -0.0090639, 0.129375, -0.024506, 3.105, 0.5308838, 3.105, 0.1588745, 3.105, -0.1749878, 3.105, 0.8138428
0.1075345, -0.0080568, 0.1299375, -0.0238346, 3.1185, 0.5306396, 3.1185, 0.152832, 3.1185, -0.1820068, 3.1185, 0.8135986
0.108, -0.0078889, 0.1305, -0.0214847, 3.132, 0.5300903, 3.132, 0.1473389, 3.132, -0.1893921, 3.132, 0.8132935
0.1084655, -0.0105745, 0.1310625, -0.021149, 3.1455, 0.5282593, 3.1455, 0.1395264, 3.1455, -0.2057495, 3.1455, 0.8118896
0.108931, -0.012253, 0.131625, -0.021149, 3.159, 0.5272827, 3.159, 0.1358643, 3.159, -0.2141113, 3.159, 0.8109741
0.1093966, -0.0099031, 0.1321875, -0.0218204, 3.1725, 0.5264282, 3.1725, 0.132019, 3.1725, -0.2218628, 3.1725, 0.8100586
0.1098621, -0.008896, 0.13275, -0.024506, 3.186, 0.5249023, 3.186, 0.1237793, 3.186, -0.2358398, 3.186, 0.8084106
0.1103276, -0.0097353, 0.1333125, -0.024506, 3.1995, 0.5239258, 3.1995, 0.1190796, 3.1995, -0.2422485, 3.1995, 0.8078613
0.1107931, -0.0117494, 0.133875, -0.0224918, 3.213, 0.5213013, 3.213, 0.1091309, 3.213, -0.2544556, 3.213, 0.8071899
0.1112586, -0.012253, 0.1344375, -0.0224918, 3.2265, 0.5197144, 3.2265, 0.1054077, 3.2265, -0.2612915, 3.2265, 0.8065186
0.1117241, -0.0109102, 0.135, -0.0258488, 3.24, 0.5180664, 3.24, 0.1021729, 3.24, -0.2687378, 3.24, 0.805542
0.1121897, -0.0102388, 0.1355625, -0.0251774, 3.2535, 0.5150757, 3.2535, 0.0964355, 3.2535, -0.2850952, 3.2535, 0.8025513
0.1126552, -0.0120851, 0.136125, -0.0238346, 3.267, 0.5139771, 3.267, 0.0927124, 3.267, -0.2927246, 3.267, 0.8009644
0.1131207, -0.0132601, 0.1366875, -0.0238346, 3.2805, 0.5114136, 3.2805, 0.0848999, 3.2805, -0.307373, 3.2805, 0.7979736
0.1135862, -0.0129244, 0.13725, -0.0265202, 3.294, 0.5097656, 3.294, 0.0805054, 3.294, -0.3145752, 3.294, 0.7966919
0.1140517, -0.0115816, 0.1378125, -0.0271916, 3.3075, 0.5081787, 3.3075, 0.0753174, 3.3075, -0.3212891, 3.3075, 0.7955322
0.1145172, -0.0112459, 0.138375, -0.0275273, 3.321, 0.5048828, 3.321, 0.0657959, 3.321, -0.3348999, 3.321, 0.7928467
0.1149828, -0.0135958, 0.1389375, -0.0271916, 3.3345, 0.5031738, 3.3345, 0.0625, 3.3345, -0.3427124, 3.3345, 0.7908936
0.1154483, -0.0140993, 0.1395, -0.0275273, 3.348, 0.5003052, 3.348, 0.055542, 3.348, -0.3569336, 3.348, 0.7869263
0.1159138, -0.0115816, 0.1400625, -0.0275273, 3.3615, 0.4991455, 3.3615, 0.0516357, 3.3615, -0.3632812, 3.3615, 0.7849731
0.1163793, -0.0099031, 0.140625, -0.024506, 3.375, 0.4976807, 3.375, 0.0477905, 3.375, -0.3696899, 3.375, 0.7831421
0.1168448, -0.0109102, 0.1411875, -0.024506, 3.3885, 0.4950562, 3.3885, 0.0386963, 3.3885, -0.3811035, 3.3885, 0.7798462
0.1173103, -0.011078, 0.14175, -0.0265202, 3.402, 0.4936523, 3.402, 0.0344849, 3.402, -0.3867798, 3.402, 0.7781372
0.1177759, -0.0102388, 0.1423125, -0.0271916, 3.4155, 0.4901733, 3.4155, 0.0270996, 3.4155, -0.3987427, 3.4155, 0.7745972
0.1182414, -0.0087282, 0.142875, -0.0271916, 3.429, 0.4884033, 3.429, 0.0238037, 3.429, -0.4049683, 3.429, 0.772583
0.1187069, -0.006714, 0.1434375, -0.0265202, 3.4425, 0.4866333, 3.4425, 0.0206299, 3.4425, -0.4111938, 3.4425, 0.7705078
0.1191724, -0.0075532, 0.144, -0.0265202, 3.456, 0.4832153, 3.456, 0.0139771, 3.456, -0.4232178, 3.456, 0.7662964
0.1196379, -0.0092317, 0.1445625, -0.0258488, 3.4695, 0.4814453, 3.4695, 0.0101929, 3.4695, -0.4290161, 3.4695, 0.7642212
0.1201034, -0.0092317, 0.145125, -0.0271916, 3.483, 0.4797974, 3.483, 0.0059204, 3.483, -0.4345703, 3.483, 0.762146
0.120569, -0.0078889, 0.1456875, -0.0285344, 3.4965, 0.4760742, 3.4965, -0.0024414, 3.4965, -0.4456177, 3.4965, 0.7581177
0.1210345, -0.0078889, 0.14625, -0.0292058, 3.51, 0.4740601, 3.51, -0.0061646, 3.51, -0.4514771, 3.51, 0.7558594
0.1215, -0.0082246, 0.1468125, -0.0271916, 3.5235, 0.4700928, 3.5235, -0.0128784, 3.5235, -0.4636841, 3.5235, 0.7509155
0.1219655, -0.0097353, 0.147375, -0.0288701, 3.537, 0.4680786, 3.537, -0.0160522, 3.537, -0.4699707, 3.537, 0.7481689
0.122431, -0.0092317, 0.1479375, -0.0298772, 3.5505, 0.4662476, 3.5505, -0.0194702, 3.5505, -0.4761353, 3.5505, 0.7453613
0.1228966, -0.006714, 0.1485, -0.0298772, 3.564, 0.461853, 3.564, -0.0272217, 3.564, -0.4883423, 3.564, 0.7398682
0.1233621, -0.0045319, 0.1490625, -0.0292058, 3.5775, 0.4594116, 3.5775, -0.0310669, 3.5775, -0.4946289, 3.5775, 0.7371216
0.1238276, -0.0062104, 0.149625, -0.0281987, 3.591, 0.4538574, 3.591, -0.038208, 3.591, -0.5075684, 3.591, 0.7314453
0.1242931, -0.0090639, 0.1501875, -0.0292058, 3.6045, 0.4508057, 3.6045, -0.0418091, 3.6045, -0.5139771, 3.6045, 0.7285767
0.1247586, -0.0105745, 0.15075, -0.027863, 3.618, 0.4476318, 3.618, -0.0452881, 3.618, -0.5204468, 3.618, 0.725708
0.1252241, -0.0117494, 0.1513125, -0.0265202, 3.6315, 0.4413452, 3.6315, -0.0518188, 3.6315, -0.5332642, 3.6315, 0.7198486
0.1256897, -0.012253, 0.151875, -0.0261845, 3.645, 0.4383545, 3.645, -0.0551147, 3.645, -0.5393677, 3.645, 0.7168579
0.1261552, -0.0120851, 0.1524375, -0.027863, 3.6585, 0.4329224, 3.6585, -0.0619507, 3.6585, -0.5508423, 3.6585, 0.7108765
0.1266207, -0.0124208, 0.153, -0.03122, 3.672, 0.4302979, 3.672, -0.0653687, 3.672, -0.5562744, 3.672, 0.7079468
0.1270862, -0.0120851, 0.1535625, -0.0325628, 3.6855, 0.4276123, 3.6855, -0.0687866, 3.6855, -0.5614624, 3.6855, 0.7051392
0.1275517, -0.0119173, 0.154125, -0.0281987, 3.699, 0.4224854, 3.699, -0.0750732, 3.699, -0.571167, 3.699, 0.6997681
0.1280172, -0.0109102, 0.1546875, -0.024506, 3.7125, 0.4202271, 3.7125, -0.078186, 3.7125, -0.5754395, 3.7125, 0.6972656
0.1284828, -0.0095674, 0.15525, -0.0258488, 3.726, 0.4181519, 3.726, -0.0812378, 3.726, -0.5794678, 3.726, 0.6948242
0.1289483, -0.0095674, 0.1558125, -0.0255131, 3.7395, 0.4141846, 3.7395, -0.0869141, 3.7395, -0.586792, 3.7395, 0.6903687
0.1294138, -0.0112459, 0.156375, -0.0251774, 3.753, 0.4125366, 3.753, -0.0897827, 3.753, -0.5900269, 3.753, 0.6882324
0.1298793, -0.0115816, 0.1569375, -0.0248417, 3.7665, 0.4094238, 3.7665, -0.0951538, 3.7665, -0.5959473, 3.7665, 0.6842651
0.1303448, -0.0109102, 0.1575, -0.0248417, 3.78, 0.4080811, 3.78, -0.0975952, 3.78, -0.5985718, 3.78, 0.6824341
0.1308103, -0.0115816, 0.1580625, -0.0258488, 3.7935, 0.4071045, 3.7935, -0.0997925, 3.7935, -0.6008911, 3.7935, 0.680603
0.1312759, -0.0117494, 0.158625, -0.0261845, 3.807, 0.406311, 3.807, -0.1046753, 3.807, -0.6044922, 3.807, 0.677124
0.1317414, -0.0083925, 0.1591875, -0.0275273, 3.8205, 0.4060059, 3.8205, -0.1069336, 3.8205, -0.605957, 3.8205, 0.6756592
0.1322069, -0.005539, 0.15975, -0.0285344, 3.834, 0.4054565, 3.834, -0.1107788, 3.834, -0.6085815, 3.834, 0.6730347
0.1326724, -0.0062104, 0.1603125, -0.0265202, 3.8475, 0.4051514, 3.8475, -0.1121216, 3.8475, -0.6096802, 3.8475, 0.671936
0.1331379, -0.008896, 0.160875, -0.0251774, 3.861, 0.4050293, 3.861, -0.1133423, 3.861, -0.6106567, 3.861, 0.6709595
0.1336034, -0.0112459, 0.1614375, -0.0248417, 3.8745, 0.4053955, 3.8745, -0.1156006, 3.8745, -0.6118774, 3.8745, 0.6692505
0.134069, -0.0117494, 0.162, -0.0238346, 3.888, 0.4058228, 3.888, -0.1161499, 3.888, -0.6123047, 3.888, 0.6685181
0.1345345, -0.0105745, 0.1625625, -0.0234989, 3.9015, 0.4078979, 3.9015, -0.1176758, 3.9015, -0.6115723, 3.9015, 0.6676636
0.135, -0.008896, 0.163125, -0.024506, 3.915, 0.4099121, 3.915, -0.1187744, 3.915, -0.6102295, 3.915, 0.6674805
0.1354655, -0.0068818, 0.1636875, -0.0265202, 3.9285, 0.4120483, 3.9285, -0.1195679, 3.9285, -0.6086426, 3.9285, 0.6674805
0.135931, -0.0072175, 0.16425, -0.0275273, 3.942, 0.4172363, 3.942, -0.1193848, 3.942, -0.6040039, 3.942, 0.668457
0.1363966, -0.008896, 0.1648125, -0.0265202, 3.9555, 0.420166, 3.9555, -0.1186523, 3.9555, -0.6010132, 3.9555, 0.6694336
0.1368621, -0.010071, 0.165375, -0.0271916, 3.969, 0.4232178, 3.969, -0.1174927, 3.969, -0.5977173, 3.969, 0.6707153
0.1373276, -0.0107424, 0.1659375, -0.0281987, 3.9825, 0.4302368, 3.9825, -0.1143188, 3.9825, -0.5895996, 3.9825, 0.6739502
0.1377931, -0.0095674, 0.1665, -0.0285344, 3.996, 0.4343872, 3.996, -0.1121826, 3.996, -0.5845947, 3.996, 0.6759644
0.1382586, -0.0107424, 0.1670625, -0.0285344, 4.0095, 0.4442139, 4.0095, -0.1075439, 4.0095, -0.5722046, 4.0095, 0.6809082
0.1387241, -0.0129244, 0.167625, -0.0285344, 4.023, 0.449646, 4.023, -0.1049805, 4.023, -0.5648804, 4.023, 0.6838989
0.1391897, -0.0127565, 0.1681875, -0.0271916, 4.0365, 0.4552002, 4.0365, -0.1020508, 4.0365, -0.5567017, 4.0365, 0.6873169
0.1396552, -0.0109102, 0.16875, -0.024506, 4.05, 0.4669189, 4.05, -0.09375, 4.05, -0.5390015, 4.05, 0.6947632
0.1401207, -0.0104067, 0.1693125, -0.0255131, 4.0635, 0.4730835, 4.0635, -0.0891724, 4.0635, -0.5290527, 4.0635, 0.6987915
0.1405862, -0.0105745, 0.169875, -0.027863, 4.077, 0.486084, 4.077, -0.0789795, 4.077, -0.5066528, 4.077, 0.7076416
0.1410517, -0.0105745, 0.1704375, -0.0275273, 4.0905, 0.4926758, 4.0905, -0.0732422, 4.0905, -0.4945068, 4.0905, 0.7123413
0.1415172, -0.0095674, 0.171, -0.0265202, 4.104, 0.4990234, 4.104, -0.0666504, 4.104, -0.4819336, 4.104, 0.7171631
0.1419828, -0.0072175, 0.1715625, -0.0261845, 4.1175, 0.5113525, 4.1175, -0.0531616, 4.1175, -0.4547729, 4.1175, 0.7272339
0.1424483, -0.0068818, 0.172125, -0.0281987, 4.131, 0.5179443, 4.131, -0.0465698, 4.131, -0.4398804, 4.131, 0.7321777
0.1429138, -0.0060426, 0.1726875, -0.0292058, 4.1445, 0.5307007, 4.1445, -0.0336914, 4.1445, -0.4072266, 4.1445, 0.7425537
0.1433793, -0.0058747, 0.17325, -0.027863, 4.158, 0.5358276, 4.158, -0.0258789, 4.158, -0.3908081, 4.158, 0.7479858
0.1438448, -0.0075532, 0.1738125, -0.0251774, 4.1715, 0.5401001, 4.1715, -0.0167847, 4.1715, -0.3747559, 4.1715, 0.7533569
0.1443103, -0.008896, 0.174375, -0.024506, 4.185, 0.5463257, 4.185, 0.0064087, 4.185, -0.3444214, 4.185, 0.7634277
0.1447759, -0.0095674, 0.1749375, -0.024506, 4.1985, 0.5488281, 4.1985, 0.0192261, 4.1985, -0.3295288, 4.1985, 0.7680054
0.1452414, -0.0092317, 0.1755, -0.024506, 4.212, 0.5529785, 4.212, 0.0447998, 4.212, -0.2995605, 4.212, 0.7761841
0.1457069, -0.0105745, 0.1760625, -0.0241703, 4.2255, 0.5550537, 4.2255, 0.057312, 4.2255, -0.2839355, 4.2255, 0.7797241
0.1461724, -0.0125887, 0.176625, -0.0258488, 4.239, 0.557251, 4.239, 0.0696411, 4.239, -0.2678223, 4.239, 0.7828979
0.1466379, -0.0135958, 0.1771875, -0.027863, 4.2525, 0.5616455, 4.2525, 0.0924072, 4.2525, -0.2331543, 4.2525, 0.7884521
0.1471034, -0.0132601, 0.17775, -0.027863, 4.266, 0.5632324, 4.266, 0.1032104, 4.266, -0.2144775, 4.266, 0.7912598
0.147569, -0.0109102, 0.1783125, -0.0251774, 4.2795, 0.5644531, 4.2795, 0.1132202, 4.2795, -0.1951904, 4.2795, 0.7940063
0.1480345, -0.0083925, 0.178875, -0.0238346, 4.293, 0.5647583, 4.293, 0.1350708, 4.293, -0.1575317, 4.293, 0.7987671
0.1485, -0.0070497, 0.1794375, -0.0228275, 4.3065, 0.5641479, 4.3065, 0.1470337, 4.3065, -0.1390991, 4.3065, 0.8004761
0.1489655, -0.0070497, 0.18, -0.0238346, 4.32, 0.5612793, 4.32, 0.1694946, 4.32, -0.1035767, 4.32, 0.8034668
0.149431, -0.0065461, 0.1805625, -0.0258488, 4.3335, 0.5595093, 4.3335, 0.1818848, 4.3335, -0.0860596, 4.3335, 0.8040161
0.1498966, -0.0072175, 0.181125, -0.0251774, 4.347, 0.5576782, 4.347, 0.1928101, 4.347, -0.0680542, 4.347, 0.8044434
0.1503621, -0.0078889, 0.1816875, -0.0251774, 4.3605, 0.5530396, 4.3605, 0.2119141, 4.3605, -0.031311, 4.3605, 0.8051147
0.1508276, -0.0068818, 0.18225, -0.0265202, 4.374, 0.5501709, 4.374, 0.2218018, 4.374, -0.0139771, 4.374, 0.8049316
0.1512931, -0.0062104, 0.1828125, -0.0265202, 4.3875, 0.5440674, 4.3875, 0.2412109, 4.3875, 0.0209961, 4.3875, 0.8033447
0.1517586, -0.0072175, 0.183375, -0.0298772, 4.401, 0.5405884, 4.401, 0.2498169, 4.401, 0.0385742, 4.401, 0.8024292
0.1522241, -0.0092317, 0.1839375, -0.0298772, 4.4145, 0.5366821, 4.4145, 0.2585449, 4.4145, 0.0552979, 4.4145, 0.8013306
0.1526897, -0.008896, 0.1845, -0.027863, 4.428, 0.5276489, 4.428, 0.2751465, 4.428, 0.086853, 4.428, 0.7989502
0.1531552, -0.0083925, 0.1850625, -0.0285344, 4.4415, 0.5229492, 4.4415, 0.2824707, 4.4415, 0.1022949, 4.4415, 0.7976685
0.1536207, -0.0093996, 0.185625, -0.027863, 4.455, 0.5140381, 4.455, 0.2973022, 4.455, 0.1335449, 4.455, 0.793457
0.1540862, -0.0107424, 0.1861875, -0.0271916, 4.4685, 0.5091553, 4.4685, 0.3023682, 4.4685, 0.1497803, 4.4685, 0.7918091
0.1545517, -0.0102388, 0.18675, -0.0271916, 4.482, 0.5039062, 4.482, 0.3075562, 4.482, 0.1657104, 4.482, 0.789978
0.1550172, -0.0085603, 0.1873125, -0.0271916, 4.4955, 0.4925537, 4.4955, 0.3164673, 4.4955, 0.1983032, 4.4955, 0.7860718
0.1554828, -0.0077211, 0.187875, -0.027863, 4.509, 0.486145, 4.509, 0.3200073, 4.509, 0.2146606, 4.509, 0.7843628
0.1559483, -0.0095674, 0.1884375, -0.0292058, 4.5225, 0.479248, 4.5225, 0.3230591, 4.5225, 0.2305908, 4.5225, 0.7827759
0.1564138, -0.011078, 0.189, -0.0298772, 4.536, 0.4653931, 4.536, 0.3306274, 4.536, 0.2596436, 4.536, 0.7788696
0.1568793, -0.0107424, 0.1895625, -0.0298772, 4.5495, 0.4587402, 4.5495, 0.3353271, 4.5495, 0.2739258, 4.5495, 0.7759399
0.1573448, -0.0099031, 0.190125, -0.0325628, 4.563, 0.4445801, 4.563, 0.3413086, 4.563, 0.3025513, 4.563, 0.770874
0.1578103, -0.0080568, 0.1906875, -0.0335698, 4.5765, 0.4375, 4.5765, 0.3444214, 4.5765, 0.3161011, 4.5765, 0.7681274
0.1582759, -0.0068818, 0.19125, -0.0298772, 4.59, 0.430603, 4.59, 0.3476562, 4.59, 0.3292847, 4.59, 0.7650757
0.1587414, -0.0072175, 0.1918125, -0.0271916, 4.6035, 0.4157104, 4.6035, 0.3525391, 4.6035, 0.3539429, 4.6035, 0.7600098
0.1592069, -0.0082246, 0.192375, -0.027863, 4.617, 0.4085083, 4.617, 0.355957, 4.617, 0.3642578, 4.617, 0.7574463
0.1596724, -0.0097353, 0.1929375, -0.0275273, 4.6305, 0.4020386, 4.6305, 0.3598633, 4.6305, 0.3725586, 4.6305, 0.7550049
0.1601379, -0.0095674, 0.1935, -0.0292058, 4.644, 0.3933105, 4.644, 0.3716431, 4.644, 0.3874512, 4.644, 0.7463379
0.1606034, -0.008896, 0.1940625, -0.0285344, 4.6575, 0.3902588, 4.6575, 0.3773193, 4.6575, 0.3938599, 4.6575, 0.7417603
0.161069, -0.0085603, 0.194625, -0.0248417, 4.671, 0.3851318, 4.671, 0.3822021, 4.671, 0.4031372, 4.671, 0.7369385
0.1615345, -0.0092317, 0.1951875, -0.0241703, 4.6845, 0.3829956, 4.6845, 0.3850708, 4.6845, 0.406311, 4.6845, 0.7348022
0.162, -0.0109102, 0.19575, -0.0258488, 4.698, 0.3845825, 4.698, 0.3939819, 4.698, 0.4067993, 4.698, 0.7289429
0.1624655, -0.012253, 0.1963125, -0.0285344, 4.7115, 0.3878174, 4.7115, 0.3984375, 4.7115, 0.4048462, 4.7115, 0.7258911
0.162931, -0.011078, 0.196875, -0.0295415, 4.725, 0.392334, 4.725, 0.402771, 4.725, 0.4016113, 4.725, 0.7229004
0.1633966, -0.0090639, 0.1974375, -0.0258488, 4.7385, 0.4036255, 4.7385, 0.4103394, 4.7385, 0.3917236, 4.7385, 0.7177734
0.1638621, -0.0095674, 0.198, -0.0234989, 4.752, 0.4091797, 4.752, 0.4124756, 4.752, 0.3860474, 4.752, 0.7164917
0.1643276, -0.0109102, 0.1985625, -0.024506, 4.7655, 0.4203491, 4.7655, 0.4125366, 4.7655, 0.3733521, 4.7655, 0.7167969
0.1647931, -0.0112459, 0.199125, -0.0248417, 4.779, 0.4244995, 4.779, 0.409729, 4.779, 0.3673706, 4.779, 0.7189941
0.1652586, -0.0109102, 0.1996875, -0.0258488, 4.7925, 0.4282227, 4.7925, 0.4064331, 4.7925, 0.361145, 4.7925, 0.7218018
0.1657241, -0.010071, 0.20025, -0.0258488, 4.806, 0.4360352, 4.806, 0.4020386, 4.806, 0.3466797, 4.806, 0.7266846
0.1661897, -0.0095674, 0.2008125, -0.0234989, 4.8195, 0.4393311, 4.8195, 0.3996582, 4.8195, 0.3387451, 4.8195, 0.7297363
0.1666552, -0.0092317, 0.201375, -0.0224918, 4.833, 0.4436646, 4.833, 0.3987427, 4.833, 0.3295898, 4.833, 0.7318115
0.1671207, -0.0112459, 0.2019375, -0.024506, 4.8465, 0.4522705, 4.8465, 0.3972778, 4.8465, 0.3101196, 4.8465, 0.7358398
0.1675862, -0.0130922, 0.2025, -0.0248417, 4.86, 0.4564209, 4.86, 0.3960571, 4.86, 0.3009644, 4.86, 0.7377319
0.1680517, -0.0135958, 0.2030625, -0.0248417, 4.8735, 0.4623413, 4.8735, 0.3905029, 4.8735, 0.2833862, 4.8735, 0.7438965
0.1685172, -0.0125887, 0.203625, -0.024506, 4.887, 0.4655151, 4.887, 0.3884277, 4.887, 0.2737427, 4.887, 0.7466431
0.1689828, -0.0120851, 0.2041875, -0.0271916, 4.9005, 0.4689941, 4.9005, 0.3865967, 4.9005, 0.2644043, 4.9005, 0.7487793
0.1694483, -0.0135958, 0.20475, -0.0275273, 4.914, 0.4743042, 4.914, 0.3799438, 4.914, 0.2478027, 4.914, 0.7545166
0.1699138, -0.014435, 0.2053125, -0.027863, 4.9275, 0.4772339, 4.9275, 0.3765869, 4.9275, 0.2398682, 4.9275, 0.756897
0.1703793, -0.0146029, 0.205875, -0.0261845, 4.941, 0.4817505, 4.941, 0.3684692, 4.941, 0.2246704, 4.941, 0.7626953
0.1708448, -0.0162814, 0.2064375, -0.024506, 4.9545, 0.4835815, 4.9545, 0.3648071, 4.9545, 0.2162476, 4.9545, 0.765686
0.1713103, -0.0162814, 0.207, -0.027863, 4.968, 0.4856567, 4.968, 0.3626099, 4.968, 0.2061768, 4.968, 0.7681885
0.1717759, -0.0137636, 0.2075625, -0.0298772, 4.9815, 0.491333, 4.9815, 0.3613281, 4.9815, 0.1815796, 4.9815, 0.7714233
0.1722414, -0.0114137, 0.208125, -0.0271916, 4.995, 0.4951172, 4.995, 0.3624268, 4.995, 0.1690674, 4.995, 0.7713013
0.1727069, -0.0112459, 0.2086875, -0.0271916, 5.0085, 0.5011597, 5.0085, 0.3566895, 5.0085, 0.1516724, 5.0085, 0.7736816
0.1731724, -0.0119173, 0.20925, -0.0292058, 5.022, 0.5029297, 5.022, 0.350647, 5.022, 0.1442261, 5.022, 0.7767334
0.1736379, -0.011078, 0.2098125, -0.0292058, 5.0355, 0.5037231, 5.0355, 0.3450317, 5.0355, 0.1350708, 5.0355, 0.7803345
0.1741034, -0.0092317, 0.210375, -0.0305486, 5.049, 0.5062256, 5.049, 0.3405151, 5.049, 0.1107788, 5.049, 0.7845459
0.174569, -0.0092317, 0.2109375, -0.0305486, 5.0625, 0.5073853, 5.0625, 0.3377075, 5.0625, 0.0994263, 5.0625, 0.7865601
0.1750345, -0.0092317, 0.2115, -0.0298772, 5.076, 0.5085449, 5.076, 0.3331909, 5.076, 0.0894775, 5.076, 0.7888794
0.1755, -0.008896, 0.2120625, -0.0281987, 5.0895, 0.5111694, 5.0895, 0.3223877, 5.0895, 0.0724487, 5.0895, 0.793457
0.1759655, -0.008896, 0.212625, -0.0285344, 5.103, 0.5123291, 5.103, 0.3162231, 5.103, 0.0639648, 5.103, 0.7958984
0.176431, -0.0092317, 0.2131875, -0.0298772, 5.1165, 0.513855, 5.1165, 0.3062744, 5.1165, 0.0452881, 5.1165, 0.8000488
0.1768966, -0.0097353, 0.21375, -0.0308843, 5.13, 0.5144043, 5.13, 0.3026123, 5.13, 0.0352783, 5.13, 0.8015747
0.1773621, -0.0099031, 0.2143125, -0.0292058, 5.1435, 0.5151978, 5.1435, 0.2992554, 5.1435, 0.0251465, 5.1435, 0.8027344
0.1778276, -0.008896, 0.214875, -0.0281987, 5.157, 0.5166626, 5.157, 0.2894897, 5.157, 0.0073242, 5.157, 0.8057861
0.1782931, -0.0082246, 0.2154375, -0.0251774, 5.1705, 0.5177612, 5.1705, 0.284729, 5.1705, -0.0015259, 5.1705, 0.8067627
0.1787586, -0.008896, 0.216, -0.0248417, 5.184, 0.5198364, 5.184, 0.2755127, 5.184, -0.0194092, 5.184, 0.8083496
0.1792241, -0.008896, 0.2165625, -0.0251774, 5.1975, 0.5209961, 5.1975, 0.2714844, 5.1975, -0.0282593, 5.1975, 0.8087158
0.1796897, -0.0078889, 0.217125, -0.0241703, 5.211, 0.5217285, 5.211, 0.265625, 5.211, -0.0359497, 5.211, 0.8099365
0.1801552, -0.008896, 0.2176875, -0.0248417, 5.2245, 0.5223999, 5.2245, 0.2529907, 5.2245, -0.0512695, 5.2245, 0.8126831
0.1806207, -0.0099031, 0.21825, -0.0258488, 5.238, 0.5223389, 5.238, 0.2479858, 5.238, -0.0599365, 5.238, 0.8136597
0.1810862, -0.0109102, 0.2188125, -0.024506, 5.2515, 0.522522, 5.2515, 0.2418213, 5.2515, -0.0786133, 5.2515, 0.8138428
0.1815517, -0.012253, 0.219375, -0.021149, 5.265, 0.5228271, 5.265, 0.2386475, 5.265, -0.0870972, 5.265, 0.8136597
0.1820172, -0.012253, 0.2199375, -0.021149, 5.2785, 0.5230713, 5.2785, 0.2345581, 5.2785, -0.0949097, 5.2785, 0.8139038
0.1824828, -0.0125887, 0.2205, -0.0228275, 5.292, 0.5229492, 5.292, 0.2241211, 5.292, -0.1107178, 5.292, 0.8148804
0.1829483, -0.0124208, 0.2210625, -0.0248417, 5.3055, 0.5227661, 5.3055, 0.2191772, 5.3055, -0.1188354, 5.3055, 0.8151855
0.1834138, -0.0124208, 0.221625, -0.0231632, 5.319, 0.5224609, 5.319, 0.2094727, 5.319, -0.1348877, 5.319, 0.8154907
0.1838793, -0.0119173, 0.2221875, -0.0218204, 5.3325, 0.5222168, 5.3325, 0.2052002, 5.3325, -0.1429443, 5.3325, 0.8153076
0.1843448, -0.012253, 0.22275, -0.0218204, 5.346, 0.5220947, 5.346, 0.2012939, 5.346, -0.1511841, 5.346, 0.8148804
0.1848103, -0.0119173, 0.2233125, -0.0221561, 5.3595, 0.5219116, 5.3595, 0.1936035, 5.3595, -0.1670532, 5.3595, 0.8137817
0.1852759, -0.0109102, 0.223875, -0.0238346, 5.373, 0.5217896, 5.373, 0.1895752, 5.373, -0.1749268, 5.373, 0.8131104
0.1857414, -0.008896, 0.2244375, -0.024506, 5.3865, 0.5215454, 5.3865, 0.1854858, 5.3865, -0.1829224, 5.3865, 0.8125
0.1862069, -0.008896, 0.225, -0.0228275, 5.4, 0.5205078, 5.4, 0.1768188, 5.4, -0.1993408, 5.4, 0.8112183
0.1866724, -0.0095674, 0.2255625, -0.0228275, 5.4135, 0.5200195, 5.4135, 0.1723022, 5.4135, -0.2073364, 5.4135, 0.8104858
0.1871379, -0.0095674, 0.226125, -0.0224918, 5.427, 0.5198364, 5.427, 0.1636963, 5.427, -0.2219849, 5.427, 0.8084717
0.1876034, -0.0105745, 0.2266875, -0.0241703, 5.4405, 0.5198975, 5.4405, 0.1586914, 5.4405, -0.2282104, 5.4405, 0.8077393
0.188069, -0.0095674, 0.22725, -0.0251774, 5.454, 0.5195312, 5.454, 0.1538696, 5.454, -0.2349243, 5.454, 0.8069458
0.1885345, -0.0083925, 0.2278125, -0.024506, 5.4675, 0.5178223, 5.4675, 0.1462402, 5.4675, -0.249939, 5.4675, 0.8049927
0.189, -0.0092317, 0.228375, -0.0258488, 5.481, 0.5168457, 5.481, 0.142395, 5.481, -0.2572632, 5.481, 0.8040161
0.1894655, -0.0099031, 0.2289375, -0.0265202, 5.4945, 0.5144653, 5.4945, 0.133667, 5.4945, -0.2714844, 5.4945, 0.8023071
0.189931, -0.0102388, 0.2295, -0.027863, 5.508, 0.5134277, 5.508, 0.1291504, 5.508, -0.2784424, 5.508, 0.8013306
0.1903966, -0.0115816, 0.2300625, -0.0281987, 5.5215, 0.5123291, 5.5215, 0.125061, 5.5215, -0.2853394, 5.5215, 0.800293
0.1908621, -0.0125887, 0.230625, -0.0271916, 5.535, 0.5088501, 5.535, 0.1188965, 5.535, -0.300293, 5.535, 0.7979736
0.1913276, -0.012253, 0.2311875, -0.0271916, 5.5485, 0.5064087, 5.5485, 0.1164551, 5.5485, -0.3082886, 5.5485, 0.796814
0.1917931, -0.010071, 0.23175, -0.0298772, 5.562, 0.5010986, 5.562, 0.1107788, 5.562, -0.3242798, 5.562, 0.7946777
0.1922586, -0.0082246, 0.2323125, -0.027863, 5.5755, 0.49823, 5.5755, 0.1075439, 5.5755, -0.3320312, 5.5755, 0.7937012
0.1927241, -0.0068818, 0.232875, -0.0271916, 5.589, 0.4955444, 5.589, 0.1040039, 5.589, -0.3395386, 5.589, 0.7926636
0.1931897, -0.0048676, 0.2334375, -0.0288701, 5.6025, 0.491333, 5.6025, 0.0955811, 5.6025, -0.3539429, 5.6025, 0.7900391
0.1936552, -0.005539, 0.234, -0.0292058, 5.616, 0.4896851, 5.616, 0.0911865, 5.616, -0.3605347, 5.616, 0.7886353
0.1941207, -0.0070497, 0.2345625, -0.0298772, 5.6295, 0.4880371, 5.6295, 0.086792, 5.6295, -0.3668823, 5.6295, 0.7872314
0.1945862, -0.0073854, 0.235125, -0.0271916, 5.643, 0.4848022, 5.643, 0.0782471, 5.643, -0.3793335, 5.643, 0.7841797
0.1950517, -0.0057069, 0.2356875, -0.0265202, 5.6565, 0.4828491, 5.6565, 0.0747681, 5.6565, -0.385376, 5.6565, 0.7827759
0.1955172, -0.0053712, 0.23625, -0.0271916, 5.67, 0.4784546, 5.67, 0.0688477, 5.67, -0.3977661, 5.67, 0.7797852
0.1959828, -0.0072175, 0.2368125, -0.0265202, 5.6835, 0.4768066, 5.6835, 0.0653076, 5.6835, -0.4035645, 5.6835, 0.7781372
0.1964483, -0.0072175, 0.237375, -0.0271916, 5.697, 0.4758301, 5.697, 0.0610962, 5.697, -0.4086304, 5.697, 0.7764282
0.1969138, -0.0078889, 0.2379375, -0.027863, 5.7105, 0.4744263, 5.7105, 0.0518799, 5.7105, -0.4174194, 5.7105, 0.7733154
0.1973793, -0.0075532, 0.2385, -0.0292058, 5.724, 0.4733276, 5.724, 0.0476685, 5.724, -0.421875, 5.724, 0.7717896
0.1978448, -0.0058747, 0.2390625, -0.0298772, 5.7375, 0.4703369, 5.7375, 0.0402222, 5.7375, -0.4310303, 5.7375, 0.7689819
0.1983103, -0.0052033, 0.239625, -0.0298772, 5.751, 0.4686279, 5.751, 0.0368652, 5.751, -0.43573, 5.751, 0.7675781
0.1987759, -0.0060426, 0.2401875, -0.0315557, 5.7645, 0.4667969, 5.7645, 0.0339355, 5.7645, -0.4406128, 5.7645, 0.7660522
0.1992414, -0.0068818, 0.24075, -0.0318914, 5.778, 0.4631348, 5.778, 0.0285034, 5.778, -0.4503784, 5.778, 0.7627563
0.1997069, -0.0083925, 0.2413125, -0.0305486, 5.7915, 0.4616089, 5.7915, 0.0253296, 5.7915, -0.4550781, 5.7915, 0.7610474
0.2001724, -0.0102388, 0.241875, -0.0325628, 5.805, 0.4581299, 5.805, 0.019165, 5.805, -0.4647827, 5.805, 0.7574463
0.2006379, -0.0125887, 0.2424375, -0.0332341, 5.8185, 0.456604, 5.8185, 0.0159302, 5.8185, -0.4694214, 5.8185, 0.7555542
0.2011034, -0.0142672, 0.243, -0.03122, 5.832, 0.4550171, 5.832, 0.0127563, 5.832, -0.4741821, 5.832, 0.7536011
0.201569, -0.0142672, 0.2435625, -0.0298772, 5.8455, 0.4509888, 5.8455, 0.0076904, 5.8455, -0.484375, 5.8455, 0.7496338
0.2020345, -0.0135958, 0.244125, -0.0285344, 5.859, 0.4485474, 5.859, 0.0056152, 5.859, -0.4898682, 5.859, 0.7475586
0.2025, -0.0132601, 0.2446875, -0.0308843, 5.8725, 0.4460449, 5.8725, 0.0036011, 5.8725, -0.4953613, 5.8725, 0.7454224
0.2029655, -0.0117494, 0.24525, -0.0305486, 5.886, 0.4417725, 5.886, -0.0015259, 5.886, -0.5057373, 5.886, 0.7409668
0.203431, -0.0102388, 0.2458125, -0.027863, 5.8995, 0.4400635, 5.8995, -0.0048828, 5.8995, -0.5105591, 5.8995, 0.7387085
0.2038966, -0.0102388, 0.246375, -0.0271916, 5.913, 0.4365845, 5.913, -0.0126343, 5.913, -0.5194702, 5.913, 0.734436
0.2043621, -0.0109102, 0.2469375, -0.0271916, 5.9265, 0.4344482, 5.9265, -0.0160522, 5.9265, -0.524292, 5.9265, 0.7322388
0.2048276, -0.0107424, 0.2475, -0.0268559, 5.94, 0.4318848, 5.94, -0.019043, 5.94, -0.5292969, 5.94, 0.7299805
0.2052931, -0.0109102, 0.2480625, -0.0258488, 5.9535, 0.4266968, 5.9535, -0.0247192, 5.9535, -0.5394897, 5.9535, 0.7254028
0.2057586, -0.0105745, 0.248625, -0.0248417, 5.967, 0.4242554, 5.967, -0.0275879, 5.967, -0.5444336, 5.967, 0.7230835
0.2062241, -0.0095674, 0.2491875, -0.0255131, 5.9805, 0.420105, 5.9805, -0.0336304, 5.9805, -0.5535889, 5.9805, 0.7182617
0.2066897, -0.008896, 0.24975, -0.0265202, 5.994, 0.4181519, 5.994, -0.0369263, 5.994, -0.5578003, 5.994, 0.7160034
0.2071552, -0.0082246, 0.2503125, -0.0258488, 6.0075, 0.4161987, 6.0075, -0.0402222, 6.0075, -0.5618286, 6.0075, 0.7138062
0.2076207, -0.0077211, 0.250875, -0.0255131, 6.021, 0.4124146, 6.021, -0.0463257, 6.021, -0.5695801, 6.021, 0.7094727
0.2080862, -0.0095674, 0.2514375, -0.0234989, 6.0345, 0.4106445, 6.0345, -0.0493164, 6.0345, -0.5731201, 6.0345, 0.7073975
0.2085517, -0.0127565, 0.252, -0.0224918, 6.048, 0.4074707, 6.048, -0.0551758, 6.048, -0.5797729, 6.048, 0.7034302
0.2090172, -0.0127565, 0.2525625, -0.0234989, 6.0615, 0.4059448, 6.0615, -0.0579224, 6.0615, -0.5828247, 6.0615, 0.7015381
0.2094828, -0.0099031, 0.253125, -0.0251774, 6.075, 0.40448, 6.075, -0.0605469, 6.075, -0.5856934, 6.075, 0.6997681
0.2099483, -0.0065461, 0.2536875, -0.0271916, 6.0885, 0.4020996, 6.0885, -0.0656128, 6.0885, -0.5909424, 6.0885, 0.6962891
0.2104138, -0.0041962, 0.25425, -0.0265202, 6.102, 0.4012451, 6.102, -0.0682983, 6.102, -0.5930176, 6.102, 0.6947021
0.2108793, -0.0045319, 0.2548125, -0.0251774, 6.1155, 0.3997192, 6.1155, -0.0733032, 6.1155, -0.5968628, 6.1155, 0.6918335
0.2113448, -0.0068818, 0.255375, -0.024506, 6.129, 0.399231, 6.129, -0.0758667, 6.129, -0.5986328, 6.129, 0.6903076
0.2118103, -0.0093996, 0.2559375, -0.0271916, 6.1425, 0.3990479, 6.1425, -0.0784912, 6.1425, -0.6000977, 6.1425, 0.6887817
0.2122759, -0.0102388, 0.2565, -0.0285344, 6.156, 0.3989868, 6.156, -0.083374, 6.156, -0.6022339, 6.156, 0.6864014
0.2127414, -0.0119173, 0.2570625, -0.0288701, 6.1695, 0.3987427, 6.1695, -0.0855713, 6.1695, -0.6033936, 6.1695, 0.6853027
0.2132069, -0.0132601, 0.257625, -0.027863, 6.183, 0.3983765, 6.183, -0.0874023, 6.183, -0.6044922, 6.183, 0.6842651
0.2136724, -0.0107424, 0.2581875, -0.0285344, 6.1965, 0.3980713, 6.1965, -0.0906372, 6.1965, -0.6066284, 6.1965, 0.6821899
0.2141379, -0.0092317, 0.25875, -0.0285344, 6.21, 0.3982544, 6.21, -0.09198, 6.21, -0.6074219, 6.21, 0.6811523
0.2146034, -0.011078, 0.2593125, -0.0285344, 6.2235, 0.3981323, 6.2235, -0.0932617, 6.2235, -0.609436, 6.2235, 0.6792603
0.215069, -0.0112459, 0.259875, -0.0271916, 6.237, 0.3981934, 6.237, -0.0936279, 6.237, -0.6099854, 6.237, 0.6786499
0.2155345, -0.0099031, 0.2604375, -0.0251774, 6.2505, 0.3987427, 6.2505, -0.0940552, 6.2505, -0.6099854, 6.2505, 0.6782227
0.216, -0.0092317, 0.261, -0.024506, 6.264, 0.401001, 6.264, -0.0953979, 6.264, -0.6084595, 6.264, 0.6781616
0.2164655, -0.0112459, 0.2615625, -0.0248417, 6.2775, 0.4031372, 6.2775, -0.0961304, 6.2775, -0.6065674, 6.2775, 0.6784668
0.216931, -0.0129244, 0.262125, -0.0238346, 6.291, 0.4085083, 6.291, -0.0955811, 6.291, -0.6016846, 6.291, 0.6796875
0.2173966, -0.0117494, 0.2626875, -0.0231632, 6.3045, 0.411438, 6.3045, -0.0943604, 6.3045, -0.5988159, 6.3045, 0.6806641
0.2178621, -0.008896, 0.26325, -0.0218204, 6.318, 0.414917, 6.318, -0.0930176, 6.318, -0.5951538, 6.318, 0.6818848
0.2183276, -0.0072175, 0.2638125, -0.0218204, 6.3315, 0.4246826, 6.3315, -0.090332, 6.3315, -0.5847168, 6.3315, 0.6853027
0.2187931, -0.008896, 0.264375, -0.0248417, 6.345, 0.4307861, 6.345, -0.0888672, 6.345, -0.5777588, 6.345, 0.687561
0.2192586, -0.0112459, 0.2649375, -0.0248417, 6.3585, 0.4457397, 6.3585, -0.0854492, 6.3585, -0.5599365, 6.3585, 0.6931763
0.2197241, -0.0104067, 0.2655, -0.0221561, 6.372, 0.4537354, 6.372, -0.0830078, 6.372, -0.5495605, 6.372, 0.6965942
0.2201897, -0.0073854, 0.2660625, -0.0231632, 6.3855, 0.4622803, 6.3855, -0.0805054, 6.3855, -0.5380859, 6.3855, 0.7001953
0.2206552, -0.0068818, 0.266625, -0.024506, 6.399, 0.4810181, 6.399, -0.0747681, 6.399, -0.5117798, 6.399, 0.7078857
0.2211207, -0.0085603, 0.2671875, -0.0271916, 6.4125, 0.4907837, 6.4125, -0.0706177, 6.4125, -0.4973145, 6.4125, 0.7119141
0.2215862, -0.0099031, 0.26775, -0.0258488, 6.426, 0.5110474, 6.426, -0.0621948, 6.426, -0.4644775, 6.426, 0.7205811
0.2220517, -0.0109102, 0.2683125, -0.0238346, 6.4395, 0.5214233, 6.4395, -0.0588989, 6.4395, -0.4458008, 6.4395, 0.7252197
0.2225172, -0.0114137, 0.268875, -0.024506, 6.453, 0.5310669, 6.453, -0.0547485, 6.453, -0.4265137, 6.453, 0.7301025
0.2229828, -0.0114137, 0.2694375, -0.024506, 6.4665, 0.5465698, 6.4665, -0.0411377, 6.4665, -0.3886108, 6.4665, 0.7406006
0.2234483, -0.0102388, 0.27, -0.024506, 6.48, 0.5532227, 6.48, -0.0324097, 6.48, -0.369751, 6.48, 0.7457886
0.2239138, -0.0085603, 0.2705625, -0.0251774, 6.4935, 0.5593262, 6.4935, -0.0234375, 6.4935, -0.3504028, 6.4935, 0.7509155
0.2243793, -0.0083925, 0.271125, -0.027863, 6.507, 0.5697021, 6.507, -0.0039062, 6.507, -0.3101807, 6.507, 0.7610474
0.2248448, -0.0075532, 0.2716875, -0.0315557, 6.5205, 0.5737915, 6.5205, 0.0073242, 6.5205, -0.2902832, 6.5205, 0.7658081
0.2253103, -0.0058747, 0.27225, -0.03122, 6.534, 0.5795898, 6.534, 0.0330811, 6.534, -0.2510986, 6.534, 0.7745972
0.2257759, -0.0058747, 0.2728125, -0.0292058, 6.5475, 0.581665, 6.5475, 0.0462646, 6.5475, -0.2312012, 6.5475, 0.7785034
0.2262414, -0.0062104, 0.273375, -0.0271916, 6.561, 0.5830688, 6.561, 0.0598755, 6.561, -0.2113037, 6.561, 0.7821655
0.2267069, -0.0063783, 0.2739375, -0.0298772, 6.5745, 0.5854492, 6.5745, 0.0882568, 6.5745, -0.1698608, 6.5745, 0.7877808
0.2271724, -0.0068818, 0.2745, -0.0281987, 6.588, 0.5861206, 6.588, 0.1011963, 6.588, -0.1473389, 6.588, 0.7902222
0.2276379, -0.0075532, 0.2750625, -0.0258488, 6.6015, 0.585144, 6.6015, 0.130127, 6.6015, -0.1039429, 6.6015, 0.7936401
0.2281034, -0.0073854, 0.275625, -0.0265202, 6.615, 0.5836182, 6.615, 0.1442261, 6.615, -0.0836182, 6.615, 0.7947388
0.228569, -0.0068818, 0.2761875, -0.0285344, 6.6285, 0.5817261, 6.6285, 0.1590576, 6.6285, -0.0634155, 6.6285, 0.795166
0.2290345, -0.0065461, 0.27675, -0.0285344, 6.642, 0.5772095, 6.642, 0.1870728, 6.642, -0.020752, 6.642, 0.7946167
0.2295, -0.0065461, 0.2773125, -0.0275273, 6.6555, 0.5741577, 6.6555, 0.1992798, 6.6555, 0.0007935, 6.6555, 0.7941284
0.2299655, -0.0073854, 0.277875, -0.027863, 6.669, 0.5661011, 6.669, 0.2224121, 6.669, 0.0447388, 6.669, 0.7924805
0.230431, -0.0083925, 0.2784375, -0.0281987, 6.6825, 0.5612183, 6.6825, 0.2342529, 6.6825, 0.0671997, 6.6825, 0.7909546
0.2308966, -0.0082246, 0.279, -0.0258488, 6.696, 0.5558472, 6.696, 0.2459717, 6.696, 0.0893555, 6.696, 0.7890015
0.2313621, -0.006714, 0.2795625, -0.0251774, 6.7095, 0.5449219, 6.7095, 0.2695923, 6.7095, 0.1318359, 6.7095, 0.7828979
0.2318276, -0.0070497, 0.280125, -0.0261845, 6.723, 0.5389404, 6.723, 0.2805176, 6.723, 0.1540527, 6.723, 0.7791748
0.2322931, -0.0077211, 0.2806875, -0.027863, 6.7365, 0.5322876, 6.7365, 0.2897339, 6.7365, 0.1757202, 6.7365, 0.7758179
0.2327586, -0.0075532, 0.28125, -0.0281987, 6.75, 0.5175781, 6.75, 0.3085938, 6.75, 0.2160645, 6.75, 0.7682495
0.2332241, -0.0102388, 0.2818125, -0.0271916, 6.7635, 0.5100708, 6.7635, 0.3179932, 6.7635, 0.2359009, 6.7635, 0.7636108
0.2336897, -0.0135958, 0.282375, -0.0255131, 6.777, 0.4928589, 6.777, 0.3308105, 6.777, 0.2755737, 6.777, 0.7561035
0.2341552, -0.0132601, 0.2829375, -0.0258488, 6.7905, 0.484375, 6.7905, 0.3375244, 6.7905, 0.2930298, 6.7905, 0.7520752
0.2346207, -0.0119173, 0.2835, -0.0271916, 6.804, 0.4760132, 6.804, 0.3441772, 6.804, 0.3087769, 6.804, 0.7481079
0.2350862, -0.0132601, 0.2840625, -0.027863, 6.8175, 0.4602051, 6.8175, 0.3588867, 6.8175, 0.3355103, 6.8175, 0.739502
0.2355517, -0.0129244, 0.284625, -0.027863, 6.831, 0.4539795, 6.831, 0.3669434, 6.831, 0.3456421, 6.831, 0.7347412
0.2360172, -0.0124208, 0.2851875, -0.0285344, 6.8445, 0.4491577, 6.8445, 0.375, 6.8445, 0.3540039, 6.8445, 0.7295532
0.2364828, -0.0135958, 0.28575, -0.0285344, 6.858, 0.4425659, 6.858, 0.3860474, 6.858, 0.368042, 6.858, 0.7208862
0.2369483, -0.0139315, 0.2863125, -0.0298772, 6.8715, 0.4405518, 6.8715, 0.3893433, 6.8715, 0.3724976, 6.8715, 0.7180786
0.2374138, -0.0130922, 0.286875, -0.0288701, 6.885, 0.4396973, 6.885, 0.3954468, 6.885, 0.375061, 6.885, 0.7138672
0.2378793, -0.0099031, 0.2874375, -0.027863, 6.8985, 0.4417114, 6.8985, 0.3982544, 6.8985, 0.3739014, 6.8985, 0.7116699
0.2383448, -0.0073854, 0.288, -0.0285344, 6.912, 0.4497681, 6.912, 0.4030151, 6.912, 0.3682251, 6.912, 0.7068481
0.2388103, -0.0065461, 0.2885625, -0.0285344, 6.9255, 0.4543457, 6.9255, 0.4035645, 6.9255, 0.3641357, 6.9255, 0.7057495
0.2392759, -0.0087282, 0.289125, -0.0281987, 6.939, 0.4589844, 6.939, 0.402832, 6.939, 0.3591309, 6.939, 0.7057495
0.2397414, -0.0105745, 0.2896875, -0.0285344, 6.9525, 0.4696045, 6.9525, 0.3983765, 6.9525, 0.3449097, 6.9525, 0.708374
0.2402069, -0.0095674, 0.29025, -0.027863, 6.966, 0.4754028, 6.966, 0.3956299, 6.966, 0.336731, 6.966, 0.7099609
0.2406724, -0.0082246, 0.2908125, -0.027863, 6.9795, 0.4813232, 6.9795, 0.3922729, 6.9795, 0.328186, 6.9795, 0.711853
0.2411379, -0.008896, 0.291375, -0.0285344, 6.993, 0.4915161, 6.993, 0.3828735, 6.993, 0.3101196, 6.993, 0.7180786
0.2416034, -0.008896, 0.2919375, -0.0258488, 7.0065, 0.4968262, 7.0065, 0.3791504, 7.0065, 0.2993164, 7.0065, 0.7210083
0.242069, -0.0083925, 0.2925, -0.0221561, 7.02, 0.5070801, 7.02, 0.3709106, 7.02, 0.2766724, 7.02, 0.7271118
0.2425345, -0.0097353, 0.2930625, -0.0221561, 7.0335, 0.5116577, 7.0335, 0.3659668, 7.0335, 0.2657471, 7.0335, 0.7304688
0.243, -0.0124208, 0.293625, -0.021149, 7.047, 0.5160522, 7.047, 0.3609619, 7.047, 0.2548828, 7.047, 0.7337646
0.2434655, -0.0142672, 0.2941875, -0.0231632, 7.0605, 0.5238037, 7.0605, 0.3498535, 7.0605, 0.2330933, 7.0605, 0.7408447
0.243931, -0.0130922, 0.29475, -0.0271916, 7.074, 0.527832, 7.074, 0.345459, 7.074, 0.2214355, 7.074, 0.7436523
0.2443966, -0.0117494, 0.2953125, -0.0275273, 7.0875, 0.5349731, 7.0875, 0.3356323, 7.0875, 0.1987915, 7.0875, 0.7494507
0.2448621, -0.0139315, 0.295875, -0.0265202, 7.101, 0.5389404, 7.101, 0.3314209, 7.101, 0.1871948, 7.101, 0.7514648
0.2453276, -0.0169528, 0.2964375, -0.0261845, 7.1145, 0.5421143, 7.1145, 0.3254395, 7.1145, 0.1765747, 7.1145, 0.7543335
0.2457931, -0.0171206, 0.297, -0.0271916, 7.128, 0.5483398, 7.128, 0.3143921, 7.128, 0.1553345, 7.128, 0.7591553
0.2462586, -0.0152743, 0.2975625, -0.0298772, 7.1415, 0.5510864, 7.1415, 0.3087769, 7.1415, 0.1447754, 7.1415, 0.7615967
0.2467241, -0.0149386, 0.298125, -0.0285344, 7.155, 0.5569458, 7.155, 0.2991333, 7.155, 0.1226196, 7.155, 0.7650146
0.2471897, -0.0157778, 0.2986875, -0.0285344, 7.1685, 0.5599365, 7.1685, 0.2952271, 7.1685, 0.1109009, 7.1685, 0.7661743
0.2476552, -0.0149386, 0.29925, -0.0281987, 7.182, 0.5629883, 7.182, 0.2912598, 7.182, 0.1001587, 7.182, 0.7669678
0.2481207, -0.0142672, 0.2998125, -0.0261845, 7.1955, 0.5678101, 7.1955, 0.2799072, 7.1955, 0.0802002, 7.1955, 0.7699585
0.2485862, -0.0137636, 0.300375, -0.0271916, 7.209, 0.5698242, 7.209, 0.2733154, 7.209, 0.0705566, 7.209, 0.7717896
0.2490517, -0.0127565, 0.3009375, -0.027863, 7.2225, 0.572998, 7.2225, 0.2599487, 7.2225, 0.052063, 7.2225, 0.7754517
0.2495172, -0.0119173, 0.3015, -0.0292058, 7.236, 0.5742188, 7.236, 0.2536011, 7.236, 0.0432129, 7.236, 0.7772217
0.2499828, -0.0104067, 0.3020625, -0.0305486, 7.2495, 0.5756226, 7.2495, 0.2491455, 7.2495, 0.0327759, 7.2495, 0.7781372
0.2504483, -0.0095674, 0.302625, -0.0288701, 7.263, 0.5783081, 7.263, 0.2432251, 7.263, 0.0098267, 7.263, 0.7786255
0.2509138, -0.008896, 0.3031875, -0.0285344, 7.2765, 0.5797119, 7.2765, 0.2402954, 7.2765, -0.0010376, 7.2765, 0.7785645
0.2513793, -0.0068818, 0.30375, -0.027863, 7.29, 0.5808105, 7.29, 0.2367554, 7.29, -0.0112305, 7.29, 0.7787476
0.2518448, -0.0045319, 0.3043125, -0.0281987, 7.3035, 0.5818481, 7.3035, 0.2254028, 7.3035, -0.0296631, 7.3035, 0.7808838
0.2523103, -0.005539, 0.304875, -0.0305486, 7.317, 0.5820923, 7.317, 0.2195435, 7.317, -0.0388184, 7.317, 0.7819824
0.2527759, -0.0078889, 0.3054375, -0.0298772, 7.3305, 0.5821533, 7.3305, 0.2093506, 7.3305, -0.0577393, 7.3305, 0.7835083
0.2532414, -0.0083925, 0.306, -0.0258488, 7.344, 0.5822144, 7.344, 0.2046509, 7.344, -0.0674438, 7.344, 0.7839355
0.2537069, -0.0083925, 0.3065625, -0.024506, 7.3575, 0.5822754, 7.3575, 0.1997681, 7.3575, -0.0762329, 7.3575, 0.7843628
0.2541724, -0.0087282, 0.307125, -0.0251774, 7.371, 0.5823364, 7.371, 0.1888428, 7.371, -0.0919189, 7.371, 0.7853394
0.2546379, -0.0095674, 0.3076875, -0.0258488, 7.3845, 0.5819702, 7.3845, 0.1831665, 7.3845, -0.0992432, 7.3845, 0.7860718
0.2551034, -0.008896, 0.30825, -0.0268559, 7.398, 0.5807495, 7.398, 0.1724243, 7.398, -0.1151733, 7.398, 0.7872314
0.255569, -0.0082246, 0.3088125, -0.0271916, 7.4115, 0.5802002, 7.4115, 0.168457, 7.4115, -0.1237793, 7.4115, 0.7871704
0.2560345, -0.0072175, 0.309375, -0.0258488, 7.425, 0.5794678, 7.425, 0.1652222, 7.425, -0.1328125, 7.425, 0.7869263
0.2565, -0.0073854, 0.3099375, -0.0261845, 7.4385, 0.5773315, 7.4385, 0.1609497, 7.4385, -0.1525269, 7.4385, 0.7858276
0.2569655, -0.0082246, 0.3105, -0.027863, 7.452, 0.5762939, 7.452, 0.1588135, 7.452, -0.1625977, 7.452, 0.7849731
0.257431, -0.0090639, 0.3110625, -0.0275273, 7.4655, 0.574646, 7.4655, 0.1503296, 7.4655, -0.1789551, 7.4655, 0.7843018
0.2578966, -0.0082246, 0.311625, -0.0258488, 7.479, 0.5737915, 7.479, 0.1445923, 7.479, -0.1858521, 7.479, 0.7844238
0.2583621, -0.0078889, 0.3121875, -0.0255131, 7.4925, 0.5726929, 7.4925, 0.1384277, 7.4925, -0.192627, 7.4925, 0.784729
0.2588276, -0.0083925, 0.31275, -0.0251774, 7.506, 0.5706177, 7.506, 0.1275024, 7.506, -0.2068481, 7.506, 0.7844238
0.2592931, -0.008896, 0.3133125, -0.0231632, 7.5195, 0.569397, 7.5195, 0.1231079, 7.5195, -0.2147217, 7.5195, 0.7838745
0.2597586, -0.0099031, 0.313875, -0.021149, 7.533, 0.5682373, 7.533, 0.1196289, 7.533, -0.2228394, 7.533, 0.78302
0.2602241, -0.012253, 0.3144375, -0.021149, 7.5465, 0.5667114, 7.5465, 0.1112671, 7.5465, -0.2373657, 7.5465, 0.7811279
0.2606897, -0.0125887, 0.315, -0.0224918, 7.56, 0.565979, 7.56, 0.1067505, 7.56, -0.2437744, 7.56, 0.7802734
0.2611552, -0.0119173, 0.3155625, -0.024506, 7.5735, 0.5635376, 7.5735, 0.0977173, 7.5735, -0.2566528, 7.5735, 0.7790527
0.2616207, -0.0095674, 0.316125, -0.0268559, 7.587, 0.5621338, 7.587, 0.0929565, 7.587, -0.2630005, 7.587, 0.7786255
0.2620862, -0.0085603, 0.3166875, -0.0292058, 7.6005, 0.5605469, 7.6005, 0.0881348, 7.6005, -0.269165, 7.6005, 0.7781982
0.2625517, -0.0095674, 0.31725, -0.0265202, 7.614, 0.5570068, 7.614, 0.0803833, 7.614, -0.2825928, 7.614, 0.7767944
0.2630172, -0.011078, 0.3178125, -0.0251774, 7.6275, 0.5549316, 7.6275, 0.0777588, 7.6275, -0.2902222, 7.6275, 0.7757568
0.2634828, -0.0115816, 0.318375, -0.0275273, 7.641, 0.5504761, 7.641, 0.0740356, 7.641, -0.3063965, 7.641, 0.7730713
0.2639483, -0.0102388, 0.3189375, -0.0285344, 7.6545, 0.548645, 7.6545, 0.0715942, 7.6545, -0.3135986, 7.6545, 0.7716675
0.2644138, -0.0085603, 0.3195, -0.0285344, 7.668, 0.546875, 7.668, 0.0681152, 7.668, -0.3199463, 7.668, 0.7706299
0.2648793, -0.0070497, 0.3200625, -0.0285344, 7.6815, 0.5431519, 7.6815, 0.0588379, 7.6815, -0.331665, 7.6815, 0.769104
0.2653448, -0.0082246, 0.320625, -0.0281987, 7.695, 0.5413818, 7.695, 0.0540161, 7.695, -0.3371582, 7.695, 0.7683105
0.2658103, -0.0095674, 0.3211875, -0.0288701, 7.7085, 0.5377197, 7.7085, 0.0464478, 7.7085, -0.3488159, 7.7085, 0.7661743
0.2662759, -0.008896, 0.32175, -0.03122, 7.722, 0.5355835, 7.722, 0.0431519, 7.722, -0.3551025, 7.722, 0.7650146
0.2667414, -0.0082246, 0.3223125, -0.0302129, 7.7355, 0.5332642, 7.7355, 0.039856, 7.7355, -0.3617554, 7.7355, 0.7636108
0.2672069, -0.0082246, 0.322875, -0.0302129, 7.749, 0.5285034, 7.749, 0.0344238, 7.749, -0.3755493, 7.749, 0.7605591
0.2676724, -0.0062104, 0.3234375, -0.03122, 7.7625, 0.5261841, 7.7625, 0.0313721, 7.7625, -0.3822021, 7.7625, 0.7589722
0.2681379, -0.0052033, 0.324, -0.03122, 7.776, 0.5238647, 7.776, 0.0275269, 7.776, -0.3883057, 7.776, 0.7576294
0.2686034, -0.0058747, 0.3245625, -0.0305486, 7.7895, 0.5199585, 7.7895, 0.0180664, 7.7895, -0.399231, 7.7895, 0.7549438
0.269069, -0.0065461, 0.325125, -0.0288701, 7.803, 0.5181274, 7.803, 0.0133057, 7.803, -0.4046631, 7.803, 0.753418
0.2695345, -0.0068818, 0.3256875, -0.0281987, 7.8165, 0.5136108, 7.8165, 0.0054932, 7.8165, -0.4165649, 7.8165, 0.7501221
0.27, -0.0068818, 0.32625, -0.0285344, 7.83, 0.5112305, 7.83, 0.0020752, 7.83, -0.4228516, 7.83, 0.74823
0.2704655, -0.0072175, 0.3268125, -0.0268559, 7.8435, 0.5088501, 7.8435, -0.0012207, 7.8435, -0.4290771, 7.8435, 0.7463379
0.270931, -0.0078889, 0.327375, -0.0251774, 7.857, 0.5042725, 7.857, -0.008728, 7.857, -0.4408569, 7.857, 0.7424927
0.2713966, -0.0082246, 0.3279375, -0.0238346, 7.8705, 0.5016479, 7.8705, -0.0127563, 7.8705, -0.4469604, 7.8705, 0.7405396
0.2718621, -0.008896, 0.3285, -0.0258488, 7.884, 0.4960327, 7.884, -0.0209961, 7.884, -0.4589844, 7.884, 0.7368164
0.2723276, -0.0097353, 0.3290625, -0.0298772, 7.8975, 0.4926147, 7.8975, -0.0248413, 7.8975, -0.4653931, 7.8975, 0.7349243
0.2727931, -0.0085603, 0.329625, -0.0292058, 7.911, 0.4891357, 7.911, -0.0285034, 7.911, -0.4720459, 7.911, 0.7329102
0.2732586, -0.0080568, 0.3301875, -0.0251774, 7.9245, 0.4825439, 7.9245, -0.0368042, 7.9245, -0.4847412, 7.9245, 0.7285767
0.2737241, -0.0090639, 0.33075, -0.0238346, 7.938, 0.4795532, 7.938, -0.041687, 7.938, -0.4906006, 7.938, 0.7263794
0.2741897, -0.0102388, 0.3313125, -0.0234989, 7.9515, 0.4761353, 7.9515, -0.0463257, 7.9515, -0.4968262, 7.9515, 0.7241211
0.2746552, -0.0115816, 0.331875, -0.0255131, 7.965, 0.4673462, 7.965, -0.0540161, 7.965, -0.5109253, 7.965, 0.7194214
0.2751207, -0.011078, 0.3324375, -0.0251774, 7.9785, 0.4621582, 7.9785, -0.057251, 7.9785, -0.5186157, 7.9785, 0.717041
0.2755862, -0.0102388, 0.333, -0.0228275, 7.992, 0.4510498, 7.992, -0.0634155, 7.992, -0.5339355, 7.992, 0.7123413
0.2760517, -0.0090639, 0.3335625, -0.0228275, 8.0055, 0.4456787, 8.0055, -0.0668945, 8.0055, -0.5413818, 8.0055, 0.7098389
0.2765172, -0.0087282, 0.334125, -0.0231632, 8.019, 0.4359131, 8.019, -0.0742798, 8.019, -0.5548096, 8.019, 0.7047729
0.2769828, -0.0097353, 0.3346875, -0.0248417, 8.0325, 0.4314575, 8.0325, -0.078186, 8.0325, -0.56073, 8.0325, 0.7023926
0.2774483, -0.0104067, 0.33525, -0.0258488, 8.046, 0.427124, 8.046, -0.0817871, 8.046, -0.5664062, 8.046, 0.7000732
0.2779138, -0.0109102, 0.3358125, -0.024506, 8.0595, 0.4176025, 8.0595, -0.0870361, 8.0595, -0.5777588, 8.0595, 0.6958618
0.2783793, -0.0105745, 0.336375, -0.024506, 8.073, 0.4124146, 8.073, -0.088623, 8.073, -0.5831909, 8.073, 0.6942139
0.2788448, -0.008896, 0.3369375, -0.0258488, 8.0865, 0.4069214, 8.0865, -0.0895386, 8.0865, -0.588501, 8.0865, 0.6928711
0.2793103, -0.0078889, 0.3375, -0.0275273, 8.1, 0.3973389, 8.1, -0.0914917, 8.1, -0.5979004, 8.1, 0.6901245
0.2797759, -0.0075532, 0.3380625, -0.0261845, 8.1135, 0.3939819, 8.1135, -0.0932007, 8.1135, -0.6013184, 8.1135, 0.6888428
0.2802414, -0.0078889, 0.338625, -0.0218204, 8.127, 0.3917236, 8.127, -0.0999146, 8.127, -0.6043091, 8.127, 0.6865845
0.2807069, -0.0099031, 0.3391875, -0.0231632, 8.1405, 0.3917236, 8.1405, -0.1037598, 8.1405, -0.6048584, 8.1405, 0.6855469
0.2811724, -0.0109102, 0.33975, -0.024506, 8.154, 0.3919678, 8.154, -0.1075439, 8.154, -0.6051636, 8.154, 0.6845093
0.2816379, -0.0112459, 0.3403125, -0.0238346, 8.1675, 0.3930054, 8.1675, -0.114563, 8.1675, -0.6052856, 8.1675, 0.6826782
0.2821034, -0.0115816, 0.340875, -0.0238346, 8.181, 0.3931885, 8.181, -0.1172485, 8.181, -0.6054077, 8.181, 0.6820068
0.282569, -0.0115816, 0.3414375, -0.024506, 8.1945, 0.3934326, 8.1945, -0.1209106, 8.1945, -0.6055908, 8.1945, 0.6810913
0.2830345, -0.0112459, 0.342, -0.0258488, 8.208, 0.3936157, 8.208, -0.1220093, 8.208, -0.6057739, 8.208, 0.680603
0.2835, -0.0109102, 0.3425625, -0.0261845, 8.2215, 0.394043, 8.2215, -0.123291, 8.2215, -0.605957, 8.2215, 0.6799927
0.2839655, -0.012253, 0.343125, -0.027863, 8.235, 0.3954468, 8.235, -0.1260986, 8.235, -0.6057129, 8.235, 0.678894
0.284431, -0.0129244, 0.3436875, -0.0298772, 8.2485, 0.3964233, 8.2485, -0.1278076, 8.2485, -0.6054077, 8.2485, 0.6782227
0.2848966, -0.0127565, 0.34425, -0.0298772, 8.262, 0.3990479, 8.262, -0.1314697, 8.262, -0.604187, 8.262, 0.677124
0.2853621, -0.012253, 0.3448125, -0.0292058, 8.2755, 0.4005127, 8.2755, -0.1331787, 8.2755, -0.6033936, 8.2755, 0.6765747
0.2858276, -0.0120851, 0.345375, -0.0298772, 8.289, 0.4020386, 8.289, -0.1343384, 8.289, -0.6026001, 8.289, 0.6761475
0.2862931, -0.0115816, 0.3459375, -0.0285344, 8.3025, 0.4050903, 8.3025, -0.135437, 8.3025, -0.6014404, 8.3025, 0.6751709
0.2867586, -0.0102388, 0.3465, -0.0292058, 8.316, 0.4071045, 8.316, -0.1358032, 8.316, -0.6005859, 8.316, 0.6746216
0.2872241, -0.0092317, 0.3470625, -0.0308843, 8.3295, 0.413147, 8.3295, -0.1373901, 8.3295, -0.5969849, 8.3295, 0.6738281
0.2876897, -0.0083925, 0.347625, -0.0285344, 8.343, 0.4173584, 8.343, -0.138916, 8.343, -0.5939331, 8.343, 0.673584
0.2881552, -0.0085603, 0.3481875, -0.0298772, 8.3565, 0.4217529, 8.3565, -0.1400757, 8.3565, -0.5906982, 8.3565, 0.6734619
0.2886207, -0.0099031, 0.34875, -0.0305486, 8.37, 0.4302979, 8.37, -0.1387329, 8.37, -0.5839844, 8.37, 0.6741943
0.2890862, -0.0109102, 0.3493125, -0.0285344, 8.3835, 0.4348755, 8.3835, -0.137207, 8.3835, -0.5800171, 8.3835, 0.6750488
0.2895517, -0.0105745, 0.349875, -0.0258488, 8.397, 0.4400024, 8.397, -0.1355591, 8.397, -0.5753174, 8.397, 0.6760864
0.2900172, -0.0095674, 0.3504375, -0.0258488, 8.4105, 0.4532471, 8.4105, -0.1330566, 8.4105, -0.562439, 8.4105, 0.6785889
0.2904828, -0.0102388, 0.351, -0.027863, 8.424, 0.4603882, 8.424, -0.1306152, 8.424, -0.5551147, 8.424, 0.6802979
0.2909483, -0.0102388, 0.3515625, -0.0234989, 8.4375, 0.4747314, 8.4375, -0.1236572, 8.4375, -0.5388184, 8.4375, 0.6848145
0.2914138, -0.0083925, 0.352125, -0.0238346, 8.451, 0.4825439, 8.451, -0.119812, 8.451, -0.5294189, 8.451, 0.687439
0.2918793, -0.0072175, 0.3526875, -0.0275273, 8.4645, 0.4903564, 8.4645, -0.1155396, 8.4645, -0.5194702, 8.4645, 0.6901855
0.2923448, -0.0075532, 0.35325, -0.027863, 8.478, 0.5065918, 8.478, -0.1054688, 8.478, -0.4976196, 8.478, 0.696167
0.2928103, -0.0085603, 0.3538125, -0.0258488, 8.4915, 0.515625, 8.4915, -0.1004639, 8.4915, -0.4847412, 8.4915, 0.6993408
0.2932759, -0.0102388, 0.354375, -0.0271916, 8.505, 0.5346069, 8.505, -0.0910645, 8.505, -0.4547729, 8.505, 0.7064819
0.2937414, -0.0112459, 0.3549375, -0.0268559, 8.5185, 0.5443115, 8.5185, -0.0870361, 8.5185, -0.4379272, 8.5185, 0.7102051
0.2942069, -0.0105745, 0.3555, -0.0275273, 8.532, 0.553833, 8.532, -0.0831299, 8.532, -0.420105, 8.532, 0.7139893
0.2946724, -0.0085603, 0.3560625, -0.0285344, 8.5455, 0.5723877, 8.5455, -0.0755005, 8.5455, -0.3815308, 8.5455, 0.7218628
0.2951379, -0.0068818, 0.356625, -0.0258488, 8.559, 0.5804443, 8.559, -0.0699463, 8.559, -0.3619385, 8.559, 0.7260742
0.2956034, -0.0072175, 0.3571875, -0.0251774, 8.5725, 0.5941772, 8.5725, -0.0548706, 8.5725, -0.3237915, 8.5725, 0.7342529
0.296069, -0.0082246, 0.35775, -0.0241703, 8.586, 0.5999146, 8.586, -0.0458984, 8.586, -0.3043213, 8.586, 0.7384644
0.2965345, -0.0072175, 0.3583125, -0.0228275, 8.5995, 0.6050415, 8.5995, -0.0362549, 8.5995, -0.2845459, 8.5995, 0.7427368
0.297, -0.0062104, 0.358875, -0.0231632, 8.613, 0.6123047, 8.613, -0.0125122, 8.613, -0.2468872, 8.613, 0.7509766
0.2974655, -0.0070497, 0.3594375, -0.0238346, 8.6265, 0.6146851, 8.6265, 0.0003662, 8.6265, -0.2285156, 8.6265, 0.7549438
0.297931, -0.0085603, 0.36, -0.0231632, 8.64, 0.6166382, 8.64, 0.0134277, 8.64, -0.210083, 8.64, 0.7585449
0.2983966, -0.0099031, 0.3605625, -0.0231632, 8.6535, 0.6196899, 8.6535, 0.0375366, 8.6535, -0.1708374, 8.6535, 0.7650757
0.2988621, -0.0109102, 0.361125, -0.0231632, 8.667, 0.6201172, 8.667, 0.0493164, 8.667, -0.1509399, 8.667, 0.7682495
0.2993276, -0.0115816, 0.3616875, -0.024506, 8.6805, 0.6193237, 8.6805, 0.0744629, 8.6805, -0.1149902, 8.6805, 0.7730713
0.2997931, -0.0124208, 0.36225, -0.0248417, 8.694, 0.6185303, 8.694, 0.0875854, 8.694, -0.0977173, 8.694, 0.7747192
0.3002586, -0.0125887, 0.3628125, -0.0251774, 8.7075, 0.6174316, 8.7075, 0.1013794, 8.7075, -0.0802612, 8.7075, 0.7758789
0.3007241, -0.0119173, 0.363375, -0.0275273, 8.721, 0.6143799, 8.721, 0.130127, 8.721, -0.0475464, 8.721, 0.7767334
0.3011897, -0.0115816, 0.3639375, -0.0285344, 8.7345, 0.6124878, 8.7345, 0.1425781, 8.7345, -0.0308228, 8.7345, 0.7769165
0.3016552, -0.0114137, 0.3645, -0.0271916, 8.748, 0.607605, 8.748, 0.1657104, 8.748, 0.0037231, 8.748, 0.7767334
0.3021207, -0.0102388, 0.3650625, -0.024506, 8.7615, 0.6046753, 8.7615, 0.177063, 8.7615, 0.0210571, 8.7615, 0.7762451
0.3025862, -0.0102388, 0.365625, -0.0248417, 8.775, 0.6014404, 8.775, 0.1877441, 8.775, 0.0388794, 8.775, 0.7755737
0.3030517, -0.0095674, 0.3661875, -0.0265202, 8.7885, 0.5944824, 8.7885, 0.2087402, 8.7885, 0.0738525, 8.7885, 0.7730103
0.3035172, -0.0075532, 0.36675, -0.0271916, 8.802, 0.5905762, 8.802, 0.2191772, 8.802, 0.0903931, 8.802, 0.7713623
0.3039828, -0.0085603, 0.3673125, -0.027863, 8.8155, 0.5864868, 8.8155, 0.2297363, 8.8155, 0.1065674, 8.8155, 0.7693481
0.3044483, -0.0097353, 0.367875, -0.0271916, 8.829, 0.5778809, 8.829, 0.2479858, 8.829, 0.1399536, 8.829, 0.7648315
0.3049138, -0.0112459, 0.3684375, -0.0251774, 8.8425, 0.5723877, 8.8425, 0.2544556, 8.8425, 0.1598511, 8.8425, 0.7629395
0.3053793, -0.012253, 0.369, -0.0251774, 8.856, 0.5581665, 8.856, 0.2639771, 8.856, 0.2056274, 8.856, 0.7592163
0.3058448, -0.0119173, 0.3695625, -0.0265202, 8.8695, 0.5487061, 8.8695, 0.2664185, 8.8695, 0.2297363, 8.8695, 0.7584229
0.3063103, -0.011078, 0.370125, -0.0258488, 8.883, 0.5386353, 8.883, 0.2711792, 8.883, 0.2512207, 8.883, 0.7570801
0.3067759, -0.0109102, 0.3706875, -0.0251774, 8.8965, 0.5198975, 8.8965, 0.2846069, 8.8965, 0.286377, 8.8965, 0.7527466
0.3072414, -0.0109102, 0.37125, -0.0258488, 8.91, 0.5122681, 8.91, 0.2924194, 8.91, 0.3008423, 8.91, 0.7493896
0.3077069, -0.0109102, 0.3718125, -0.0271916, 8.9235, 0.4989014, 8.9235, 0.3054199, 8.9235, 0.3278809, 8.9235, 0.7418213
0.3081724, -0.0104067, 0.372375, -0.0292058, 8.937, 0.4927979, 8.937, 0.3118896, 8.937, 0.3396606, 8.937, 0.737915
0.3086379, -0.0085603, 0.3729375, -0.027863, 8.9505, 0.4874878, 8.9505, 0.3207397, 8.9505, 0.3495483, 8.9505, 0.7330322
0.3091034, -0.0075532, 0.3735, -0.0251774, 8.964, 0.4797363, 8.964, 0.340271, 8.964, 0.3640137, 8.964, 0.722168
0.309569, -0.0068818, 0.3740625, -0.0238346, 8.9775, 0.4769897, 8.9775, 0.3461914, 8.9775, 0.3707275, 8.9775, 0.7177734
0.3100345, -0.0072175, 0.374625, -0.0231632, 8.991, 0.4689331, 8.991, 0.3515625, 8.991, 0.3847046, 8.991, 0.7130737
0.3105, -0.008896, 0.3751875, -0.024506, 9.0045, 0.4647217, 9.0045, 0.3536987, 9.0045, 0.3905029, 9.0045, 0.7116699
0.3109655, -0.008896, 0.37575, -0.0251774, 9.018, 0.4616699, 9.018, 0.3551025, 9.018, 0.3947144, 9.018, 0.7106323
0.311431, -0.0092317, 0.3763125, -0.0251774, 9.0315, 0.4607544, 9.0315, 0.3580322, 9.0315, 0.3986206, 9.0315, 0.7075195
0.3118966, -0.0104067, 0.376875, -0.0248417, 9.045, 0.4624634, 9.045, 0.3591309, 9.045, 0.3983765, 9.045, 0.7060547
0.3123621, -0.0125887, 0.3774375, -0.0238346, 9.0585, 0.4689331, 9.0585, 0.3609619, 9.0585, 0.3922119, 9.0585, 0.7042236
0.3128276, -0.0132601, 0.378, -0.0228275, 9.072, 0.4731445, 9.072, 0.361084, 9.072, 0.3862305, 9.072, 0.7047119
0.3132931, -0.012253, 0.3785625, -0.024506, 9.0855, 0.4778442, 9.0855, 0.3614502, 9.0855, 0.3798218, 9.0855, 0.7047729
0.3137586, -0.012253, 0.379125, -0.0258488, 9.099, 0.4868164, 9.099, 0.3594971, 9.099, 0.3664551, 9.099, 0.7067261
0.3142241, -0.0132601, 0.3796875, -0.0271916, 9.1125, 0.4906616, 9.1125, 0.3567505, 9.1125, 0.3599854, 9.1125, 0.7088013
0.3146897, -0.0137636, 0.38025, -0.027863, 9.126, 0.4971924, 9.126, 0.3498535, 9.126, 0.3458252, 9.126, 0.7147217
0.3151552, -0.0119173, 0.3808125, -0.0298772, 9.1395, 0.5004272, 9.1395, 0.3460693, 9.1395, 0.3375244, 9.1395, 0.7182617
0.3156207, -0.0093996, 0.381375, -0.03122, 9.153, 0.5042114, 9.153, 0.3428345, 9.153, 0.3278198, 9.153, 0.7216187
0.3160862, -0.008896, 0.3819375, -0.0315557, 9.1665, 0.5140991, 9.1665, 0.3392334, 9.1665, 0.305481, 9.1665, 0.7261353
0.3165517, -0.008896, 0.3825, -0.0298772, 9.18, 0.5189819, 9.18, 0.336853, 9.18, 0.2946777, 9.18, 0.7282715
0.3170172, -0.0104067, 0.3830625, -0.0271916, 9.1935, 0.5234375, 9.1935, 0.3336182, 9.1935, 0.2838135, 9.1935, 0.730835
0.3174828, -0.0104067, 0.383625, -0.0261845, 9.207, 0.5325928, 9.207, 0.3289185, 9.207, 0.2576904, 9.207, 0.7360229
0.3179483, -0.011078, 0.3841875, -0.027863, 9.2205, 0.5369263, 9.2205, 0.3267822, 9.2205, 0.2427979, 9.2205, 0.7388916
0.3184138, -0.0127565, 0.38475, -0.0285344, 9.234, 0.5465088, 9.234, 0.3238525, 9.234, 0.2119751, 9.234, 0.7426147
0.3188793, -0.0124208, 0.3853125, -0.0281987, 9.2475, 0.5506592, 9.2475, 0.3203735, 9.2475, 0.197937, 9.2475, 0.7449341
0.3193448, -0.0102388, 0.385875, -0.0298772, 9.261, 0.5544434, 9.261, 0.3157349, 9.261, 0.1849365, 9.261, 0.7474976
0.3198103, -0.0092317, 0.3864375, -0.0285344, 9.2745, 0.5606079, 9.2745, 0.3049316, 9.2745, 0.1587524, 9.2745, 0.7533569
0.3202759, -0.0105745, 0.387, -0.0271916, 9.288, 0.5632324, 9.288, 0.2994995, 9.288, 0.1444702, 9.288, 0.7564697
0.3207414, -0.0104067, 0.3875625, -0.0258488, 9.3015, 0.5681152, 9.3015, 0.291626, 9.3015, 0.1125488, 9.3015, 0.7612915
0.3212069, -0.0085603, 0.388125, -0.0238346, 9.315, 0.5703125, 9.315, 0.2875977, 9.315, 0.0966797, 9.315, 0.7633057
0.3216724, -0.0082246, 0.3886875, -0.0255131, 9.3285, 0.5730591, 9.3285, 0.2841797, 9.3285, 0.0802002, 9.3285, 0.7644653
0.3221379, -0.0092317, 0.38925, -0.0265202, 9.342, 0.5770874, 9.342, 0.272583, 9.342, 0.0506592, 9.342, 0.7681885
0.3226034, -0.0099031, 0.3898125, -0.0238346, 9.3555, 0.5784302, 9.3555, 0.2641602, 9.3555, 0.0379639, 9.3555, 0.770874
0.323069, -0.0092317, 0.390375, -0.0234989, 9.369, 0.5799561, 9.369, 0.2487183, 9.369, 0.0114746, 9.369, 0.7756348
0.3235345, -0.0092317, 0.3909375, -0.024506, 9.3825, 0.5802612, 9.3825, 0.2403564, 9.3825, -0.0014038, 9.3825, 0.7781372
0.324, -0.0095674, 0.3915, -0.0241703, 9.396, 0.5809937, 9.396, 0.2341309, 9.396, -0.015564, 9.396, 0.7793579
0.3244655, -0.0082246, 0.3920625, -0.0234989, 9.4095, 0.5823364, 9.4095, 0.2172241, 9.4095, -0.0394287, 9.4095, 0.7824097
0.324931, -0.0070497, 0.392625, -0.0248417, 9.423, 0.5835571, 9.423, 0.2072144, 9.423, -0.0485229, 9.423, 0.7836914
0.3253966, -0.0085603, 0.3931875, -0.0265202, 9.4365, 0.585083, 9.4365, 0.1862183, 9.4365, -0.0649414, 9.4365, 0.7866211
0.3258621, -0.0095674, 0.39375, -0.0258488, 9.45, 0.5852661, 9.45, 0.177063, 9.45, -0.0734253, 9.45, 0.7878418
0.3263276, -0.0092317, 0.3943125, -0.0248417, 9.4635, 0.5848999, 9.4635, 0.1702881, 9.4635, -0.0831299, 9.4635, 0.7886963
0.3267931, -0.0082246, 0.394875, -0.0258488, 9.477, 0.5835571, 9.477, 0.1592407, 9.477, -0.1049194, 9.477, 0.7893677
0.3272586, -0.0072175, 0.3954375, -0.0258488, 9.4905, 0.5834351, 9.4905, 0.1547852, 9.4905, -0.1167603, 9.4905, 0.7886963
0.3277241, -0.0082246, 0.396, -0.0251774, 9.504, 0.5839233, 9.504, 0.1483765, 9.504, -0.1264648, 9.504, 0.7880249
0.3281897, -0.0082246, 0.3965625, -0.0265202, 9.5175, 0.5862427, 9.5175, 0.1291504, 9.5175, -0.1377563, 9.5175, 0.7877808
0.3286552, -0.0065461, 0.397125, -0.0285344, 9.531, 0.5866089, 9.531, 0.1191406, 9.531, -0.1420898, 9.531, 0.7883911
0.3291207, -0.0046998, 0.3976875, -0.0292058, 9.5445, 0.5844727, 9.5445, 0.1060181, 9.5445, -0.1558228, 9.5445, 0.7891846
0.3295862, -0.0045319, 0.39825, -0.0271916, 9.558, 0.5829468, 9.558, 0.1019287, 9.558, -0.1647949, 9.558, 0.7890625
0.3300517, -0.0058747, 0.3988125, -0.0271916, 9.5715, 0.5814819, 9.5715, 0.098938, 9.5715, -0.1741333, 9.5715, 0.7885132
0.3305172, -0.0063783, 0.399375, -0.0298772, 9.585, 0.5803223, 9.585, 0.0928345, 9.585, -0.1917114, 9.585, 0.7860718
0.3309828, -0.0058747, 0.3999375, -0.0298772, 9.5985, 0.5794678, 9.5985, 0.0897827, 9.5985, -0.2004395, 9.5985, 0.7848511
0.3314483, -0.0057069, 0.4005, -0.0288701, 9.612, 0.5760498, 9.612, 0.0861206, 9.612, -0.2195435, 9.612, 0.7826538
0.3319138, -0.0077211, 0.4010625, -0.027863, 9.6255, 0.5739136, 9.6255, 0.0854492, 9.6255, -0.229126, 9.6255, 0.7815552
0.3323793, -0.0102388, 0.401625, -0.0305486, 9.639, 0.5715942, 9.639, 0.0847778, 9.639, -0.2386475, 9.639, 0.7804565
0.3328448, -0.011078, 0.4021875, -0.0352483, 9.6525, 0.567627, 9.6525, 0.0805054, 9.6525, -0.2561035, 9.6525, 0.7782593
0.3333103, -0.011078, 0.40275, -0.0349126, 9.666, 0.5661011, 9.666, 0.0764771, 9.666, -0.2636719, 9.666, 0.7772827
0.3337759, -0.0112459, 0.4033125, -0.0315557, 9.6795, 0.5634155, 9.6795, 0.0661011, 9.6795, -0.2770996, 9.6795, 0.7755127
0.3342414, -0.0125887, 0.403875, -0.0302129, 9.693, 0.5618286, 9.693, 0.0614014, 9.693, -0.2842407, 9.693, 0.7744751
0.3347069, -0.0115816, 0.4044375, -0.0302129, 9.7065, 0.5599365, 9.7065, 0.0574951, 9.7065, -0.2918091, 9.7065, 0.7733154
0.3351724, -0.0112459, 0.405, -0.0298772, 9.72, 0.5551147, 9.72, 0.0521851, 9.72, -0.309021, 9.72, 0.7705078
0.3356379, -0.0125887, 0.4055625, -0.0305486, 9.7335, 0.5524902, 9.7335, 0.0498047, 9.7335, -0.3178711, 9.7335, 0.7689209
0.3361034, -0.0139315, 0.406125, -0.0305486, 9.747, 0.550293, 9.747, 0.0457764, 9.747, -0.3253174, 9.747, 0.7676392
0.336569, -0.0149386, 0.4066875, -0.0305486, 9.7605, 0.5470581, 9.7605, 0.0350342, 9.7605, -0.3377075, 9.7605, 0.7651367
0.3370345, -0.014435, 0.40725, -0.0302129, 9.774, 0.5455933, 9.774, 0.0297852, 9.774, -0.343811, 9.774, 0.7637329
0.3375, -0.0119173, 0.4078125, -0.0265202, 9.7875, 0.5420532, 9.7875, 0.0205688, 9.7875, -0.3566895, 9.7875, 0.7606201
0.3379655, -0.0102388, 0.408375, -0.0231632, 9.801, 0.5402222, 9.801, 0.0165405, 9.801, -0.3632202, 9.801, 0.7589111
0.338431, -0.0097353, 0.4089375, -0.0228275, 9.8145, 0.5384521, 9.8145, 0.0125732, 9.8145, -0.369751, 9.8145, 0.7571411
0.3388966, -0.0099031, 0.4095, -0.0231632, 9.828, 0.5353394, 9.828, 0.0043335, 9.828, -0.382019, 9.828, 0.7532959
0.3393621, -0.0097353, 0.4100625, -0.0234989, 9.8415, 0.5336304, 9.8415, -6.1E-05, 9.8415, -0.3876343, 9.8415, 0.7516479
0.3398276, -0.0085603, 0.410625, -0.0231632, 9.855, 0.5315552, 9.855, -0.0038452, 9.855, -0.3934937, 9.855, 0.750061
0.3402931, -0.0082246, 0.4111875, -0.024506, 9.8685, 0.5267334, 9.8685, -0.0101929, 9.8685, -0.4060059, 9.8685, 0.7467651
0.3407586, -0.008896, 0.41175, -0.0238346, 9.882, 0.5244141, 9.882, -0.0134277, 9.882, -0.4117432, 9.882, 0.7451782
0.3412241, -0.008896, 0.4123125, -0.0208133, 9.8955, 0.5193481, 9.8955, -0.0189819, 9.8955, -0.4230347, 9.8955, 0.7422485
0.3416897, -0.0072175, 0.412875, -0.0218204, 9.909, 0.5170288, 9.909, -0.0214844, 9.909, -0.4284668, 9.909, 0.7407227
0.3421552, -0.0058747, 0.4134375, -0.0221561, 9.9225, 0.5128784, 9.9225, -0.0267334, 9.9225, -0.4385376, 9.9225, 0.7374878
0.3426207, -0.0068818, 0.414, -0.021149, 9.936, 0.5108643, 9.936, -0.02948, 9.936, -0.4431152, 9.936, 0.7360229
0.3430862, -0.0080568, 0.4145625, -0.0221561, 9.9495, 0.508606, 9.9495, -0.0321045, 9.9495, -0.4478149, 9.9495, 0.7346802
0.3435517, -0.0078889, 0.415125, -0.0228275, 9.963, 0.5025635, 9.963, -0.0357666, 9.963, -0.4588623, 9.963, 0.7318115
0.3440172, -0.0072175, 0.4156875, -0.0241703, 9.9765, 0.4987793, 9.9765, -0.0369873, 9.9765, -0.46521, 9.9765, 0.7303467
0.3444828, -0.0078889, 0.41625, -0.0258488, 9.99, 0.494812, 9.99, -0.0379639, 9.99, -0.4717407, 9.99, 0.7287598
0.3449483, -0.0083925, 0.4168125, -0.0265202, 10.0035, 0.4882202, 10.0035, -0.0409546, 10.0035, -0.4839478, 10.0035, 0.7250977
0.3454138, -0.0090639, 0.417375, -0.027863, 10.017, 0.4856567, 10.017, -0.0440674, 10.017, -0.4888916, 10.017, 0.7233276
0.3458793, -0.0092317, 0.4179375, -0.0275273, 10.0305, 0.4807739, 10.0305, -0.0510864, 10.0305, -0.4980469, 10.0305, 0.7198486
0.3463448, -0.0095674, 0.4185, -0.0275273, 10.044, 0.4779053, 10.044, -0.0542603, 10.044, -0.5028076, 10.044, 0.7182617
0.3468103, -0.0092317, 0.4190625, -0.027863, 10.0575, 0.4745483, 10.0575, -0.0567627, 10.0575, -0.5078125, 10.0575, 0.7167358
0.3472759, -0.0082246, 0.419625, -0.0285344, 10.071, 0.4658813, 10.071, -0.05896, 10.071, -0.5197754, 10.071, 0.713623
0.3477414, -0.0065461, 0.4201875, -0.0298772, 10.0845, 0.4612427, 10.0845, -0.0596313, 10.0845, -0.5262451, 10.0845, 0.7119141
0.3482069, -0.0078889, 0.42075, -0.0281987, 10.098, 0.4568481, 10.098, -0.0602417, 10.098, -0.5323486, 10.098, 0.710144
0.3486724, -0.0104067, 0.4213125, -0.024506, 10.1115, 0.449585, 10.1115, -0.0635376, 10.1115, -0.5429077, 10.1115, 0.7064209
0.3491379, -0.010071, 0.421875, -0.0221561, 10.125, 0.446106, 10.125, -0.0657349, 10.125, -0.5479126, 10.125, 0.7045898
0.3496034, -0.0092317, 0.4224375, -0.0234989, 10.1385, 0.4385986, 10.1385, -0.0697632, 10.1385, -0.5581665, 10.1385, 0.7008057
0.350069, -0.008896, 0.423, -0.0271916, 10.152, 0.4345093, 10.152, -0.0713501, 10.152, -0.5631714, 10.152, 0.6992798
0.3505345, -0.0072175, 0.4235625, -0.0292058, 10.1655, 0.4252319, 10.1655, -0.072937, 10.1655, -0.5735474, 10.1655, 0.6963501
0.351, -0.0075532, 0.424125, -0.0265202, 10.179, 0.4206543, 10.179, -0.0733643, 10.179, -0.5787354, 10.179, 0.6947632
0.3514655, -0.0085603, 0.4246875, -0.0251774, 10.1925, 0.416687, 10.1925, -0.0740967, 10.1925, -0.5835571, 10.1925, 0.6930542
0.351931, -0.0099031, 0.42525, -0.0255131, 10.206, 0.4111938, 10.206, -0.0779419, 10.206, -0.5906982, 10.206, 0.6898804
0.3523966, -0.0102388, 0.4258125, -0.0255131, 10.2195, 0.4094238, 10.2195, -0.0803223, 10.2195, -0.5934448, 10.2195, 0.6882935
0.3528621, -0.0092317, 0.426375, -0.0271916, 10.233, 0.4064331, 10.233, -0.0855103, 10.233, -0.5983887, 10.233, 0.6851807
0.3533276, -0.0090639, 0.4269375, -0.0285344, 10.2465, 0.4053345, 10.2465, -0.088623, 10.2465, -0.6002197, 10.2465, 0.6837769
0.3537931, -0.0097353, 0.4275, -0.0275273, 10.26, 0.4041138, 10.26, -0.0912476, 10.26, -0.6019287, 10.26, 0.6826782
0.3542586, -0.0115816, 0.4280625, -0.0258488, 10.2735, 0.4003296, 10.2735, -0.0943604, 10.2735, -0.605835, 10.2735, 0.6810303
0.3547241, -0.0135958, 0.428625, -0.024506, 10.287, 0.3980713, 10.287, -0.0951538, 10.287, -0.6078491, 10.287, 0.6804199
0.3551897, -0.0137636, 0.4291875, -0.024506, 10.3005, 0.3961182, 10.3005, -0.0958252, 10.3005, -0.6097412, 10.3005, 0.6798096
0.3556552, -0.0125887, 0.42975, -0.0248417, 10.314, 0.3931274, 10.314, -0.0973511, 10.314, -0.6129761, 10.314, 0.6784058
0.3561207, -0.011078, 0.4303125, -0.024506, 10.3275, 0.3925171, 10.3275, -0.098877, 10.3275, -0.6138916, 10.3275, 0.6777344
0.3565862, -0.0099031, 0.430875, -0.0238346, 10.341, 0.3914795, 10.341, -0.1018677, 10.341, -0.6151123, 10.341, 0.6767578
0.3570517, -0.0112459, 0.4314375, -0.0258488, 10.3545, 0.390564, 10.3545, -0.1028442, 10.3545, -0.6157227, 10.3545, 0.6765747
0.3575172, -0.0135958, 0.432, -0.0271916, 10.368, 0.3892822, 10.368, -0.1033325, 10.368, -0.6164551, 10.368, 0.6765747
0.3579828, -0.012253, 0.4325625, -0.0265202, 10.3815, 0.3864136, 10.3815, -0.1030884, 10.3815, -0.6184082, 10.3815, 0.6765137
0.3584483, -0.0102388, 0.433125, -0.0251774, 10.395, 0.3853149, 10.395, -0.1026001, 10.395, -0.6193848, 10.395, 0.6763306
0.3589138, -0.0104067, 0.4336875, -0.0275273, 10.4085, 0.385376, 10.4085, -0.1032715, 10.4085, -0.6196289, 10.4085, 0.6759033
0.3593793, -0.0105745, 0.43425, -0.0298772, 10.422, 0.3856812, 10.422, -0.1035767, 10.422, -0.6193848, 10.422, 0.6759033
0.3598448, -0.0102388, 0.4348125, -0.0285344, 10.4355, 0.385498, 10.4355, -0.1034546, 10.4355, -0.6193237, 10.4355, 0.6760864
0.3603103, -0.0092317, 0.435375, -0.027863, 10.449, 0.3851318, 10.449, -0.1029053, 10.449, -0.6192627, 10.449, 0.6764526
0.3607759, -0.0090639, 0.4359375, -0.0271916, 10.4625, 0.385498, 10.4625, -0.1025391, 10.4625, -0.6190186, 10.4625, 0.6765137
0.3612414, -0.0099031, 0.4365, -0.027863, 10.476, 0.3887329, 10.476, -0.102478, 10.476, -0.6168213, 10.476, 0.6766968
0.3617069, -0.010071, 0.4370625, -0.0292058, 10.4895, 0.3911743, 10.4895, -0.1027832, 10.4895, -0.6151733, 10.4895, 0.6766968
0.3621724, -0.011078, 0.437625, -0.0295415, 10.503, 0.3942871, 10.503, -0.1030884, 10.503, -0.6130981, 10.503, 0.6767578
0.3626379, -0.0135958, 0.4381875, -0.0275273, 10.5165, 0.4017334, 10.5165, -0.1026611, 10.5165, -0.6078491, 10.5165, 0.6771851
0.3631034, -0.0125887, 0.43875, -0.0265202, 10.53, 0.4063721, 10.53, -0.1019897, 10.53, -0.604187, 10.53, 0.6777954
0.363569, -0.0092317, 0.4393125, -0.0258488, 10.5435, 0.4116211, 10.5435, -0.1008911, 10.5435, -0.5999146, 10.5435, 0.6785889
0.3640345, -0.0092317, 0.439875, -0.0258488, 10.557, 0.4241333, 10.557, -0.0974731, 10.557, -0.5887451, 10.557, 0.6811523
0.3645, -0.0115816, 0.4404375, -0.0261845, 10.5705, 0.4315186, 10.5705, -0.0955811, 10.5705, -0.5817261, 10.5705, 0.6828003
0.3649655, -0.0115816, 0.441, -0.0251774, 10.584, 0.4485474, 10.584, -0.0905151, 10.584, -0.5648193, 10.584, 0.6867676
0.365431, -0.0082246, 0.4415625, -0.0238346, 10.5975, 0.4581909, 10.5975, -0.0880127, 10.5975, -0.5546265, 10.5975, 0.6890259
0.3658966, -0.0063783, 0.442125, -0.0234989, 10.611, 0.4680176, 10.611, -0.085022, 10.611, -0.5437622, 10.611, 0.6914062
0.3663621, -0.0068818, 0.4426875, -0.024506, 10.6245, 0.4882202, 10.6245, -0.0778198, 10.6245, -0.5200806, 10.6245, 0.6964722
0.3668276, -0.0077211, 0.44325, -0.0238346, 10.638, 0.4988403, 10.638, -0.0739136, 10.638, -0.5068359, 10.638, 0.6991577
0.3672931, -0.0078889, 0.4438125, -0.0255131, 10.6515, 0.5209961, 10.6515, -0.067627, 10.6515, -0.4763184, 10.6515, 0.7050781
0.3677586, -0.0082246, 0.444375, -0.0288701, 10.665, 0.5321655, 10.665, -0.0645142, 10.665, -0.4594727, 10.665, 0.7081909
0.3682241, -0.0090639, 0.4449375, -0.0285344, 10.6785, 0.5436401, 10.6785, -0.0615845, 10.6785, -0.4412231, 10.6785, 0.7113647
0.3686897, -0.0090639, 0.4455, -0.0271916, 10.692, 0.5678711, 10.692, -0.0584106, 10.692, -0.3987427, 10.692, 0.7177124
0.3691552, -0.0090639, 0.4460625, -0.0275273, 10.7055, 0.5792847, 10.7055, -0.0579834, 10.7055, -0.3751831, 10.7055, 0.7213135
0.3696207, -0.0105745, 0.446625, -0.0288701, 10.719, 0.5952148, 10.719, -0.0487061, 10.719, -0.3322144, 10.719, 0.7300415
0.3700862, -0.0112459, 0.4471875, -0.0292058, 10.7325, 0.5997314, 10.7325, -0.0379028, 10.7325, -0.3148804, 10.7325, 0.7346191
0.3705517, -0.0115816, 0.44775, -0.027863, 10.746, 0.6035156, 10.746, -0.0247192, 10.746, -0.2992554, 10.746, 0.7386475
0.3710172, -0.0130922, 0.4483125, -0.0275273, 10.7595, 0.6112671, 10.7595, -0.0010376, 10.7595, -0.2647705, 10.7595, 0.7457886
0.3714828, -0.0149386, 0.448875, -0.0261845, 10.773, 0.614624, 10.773, 0.0090332, 10.773, -0.2460938, 10.773, 0.7493896
0.3719483, -0.0149386, 0.4494375, -0.0251774, 10.7865, 0.618103, 10.7865, 0.0327148, 10.7865, -0.2115479, 10.7865, 0.7563477
0.3724138, -0.0135958, 0.45, -0.0251774, 10.8, 0.6191406, 10.8, 0.0456543, 10.8, -0.1946411, 10.8, 0.7593994
0.3728793, -0.0124208, 0.4505625, -0.027863, 10.8135, 0.619751, 10.8135, 0.059082, 10.8135, -0.1782227, 10.8135, 0.7620239
0.3733448, -0.012253, 0.451125, -0.0281987, 10.827, 0.6200562, 10.827, 0.0827637, 10.827, -0.145874, 10.827, 0.7664185
0.3738103, -0.0129244, 0.4516875, -0.0281987, 10.8405, 0.619812, 10.8405, 0.09375, 10.8405, -0.1293335, 10.8405, 0.7683105
0.3742759, -0.0130922, 0.45225, -0.0268559, 10.854, 0.6190796, 10.854, 0.1052246, 10.854, -0.1130981, 10.854, 0.7699585
0.3747414, -0.0132601, 0.4528125, -0.0271916, 10.8675, 0.616394, 10.8675, 0.1295776, 10.8675, -0.0819092, 10.8675, 0.7723999
0.3752069, -0.0129244, 0.453375, -0.0292058, 10.881, 0.6148682, 10.881, 0.1419067, 10.881, -0.0665283, 10.881, 0.7728882
0.3756724, -0.0135958, 0.4539375, -0.027863, 10.8945, 0.6117554, 10.8945, 0.1641846, 10.8945, -0.0322876, 10.8945, 0.7731323
0.3761379, -0.0140993, 0.4545, -0.0275273, 10.908, 0.609375, 10.908, 0.1743164, 10.908, -0.0141602, 10.908, 0.7733765
0.3766034, -0.0129244, 0.4550625, -0.027863, 10.9215, 0.6063232, 10.9215, 0.1824341, 10.9215, 0.003418, 10.9215, 0.7739868
0.377069, -0.0109102, 0.455625, -0.027863, 10.935, 0.5991821, 10.935, 0.2001343, 10.935, 0.0383301, 10.935, 0.774231
0.3775345, -0.0104067, 0.4561875, -0.0288701, 10.9485, 0.5957031, 10.9485, 0.2107544, 10.9485, 0.0545044, 10.9485, 0.7731323
0.378, -0.0119173, 0.45675, -0.0275273, 10.962, 0.5921021, 10.962, 0.2210083, 10.962, 0.0707397, 10.962, 0.7717285
0.3784655, -0.012253, 0.4573125, -0.0271916, 10.9755, 0.5844116, 10.9755, 0.2387695, 10.9755, 0.104187, 10.9755, 0.7684937
0.378931, -0.0109102, 0.457875, -0.027863, 10.989, 0.5800781, 10.989, 0.2462158, 10.989, 0.1211548, 10.989, 0.7669678
0.3793966, -0.0109102, 0.4584375, -0.0285344, 11.0025, 0.5687256, 11.0025, 0.2583618, 11.0025, 0.1575317, 11.0025, 0.7648315
0.3798621, -0.0104067, 0.459, -0.027863, 11.016, 0.562439, 11.016, 0.2668457, 11.016, 0.1746826, 11.016, 0.7628174
0.3803276, -0.0102388, 0.4595625, -0.0265202, 11.0295, 0.5495605, 11.0295, 0.284729, 11.0295, 0.2072144, 11.0295, 0.7576294
0.3807931, -0.0090639, 0.460125, -0.0265202, 11.043, 0.5432739, 11.043, 0.2946167, 11.043, 0.2224731, 11.043, 0.7540283
0.3812586, -0.0072175, 0.4606875, -0.027863, 11.0565, 0.5368652, 11.0565, 0.3026123, 11.0565, 0.2376709, 11.0565, 0.7507935
0.3817241, -0.0073854, 0.46125, -0.027863, 11.07, 0.5239258, 11.07, 0.3179932, 11.07, 0.2655029, 11.07, 0.7442627
0.3821897, -0.0085603, 0.4618125, -0.0261845, 11.0835, 0.5174561, 11.0835, 0.3251343, 11.0835, 0.2782593, 11.0835, 0.7410278
0.3826552, -0.0093996, 0.462375, -0.0258488, 11.097, 0.5106812, 11.097, 0.3309937, 11.097, 0.2901611, 11.097, 0.7385864
0.3831207, -0.008896, 0.4629375, -0.0271916, 11.1105, 0.4973145, 11.1105, 0.3433228, 11.1105, 0.3103638, 11.1105, 0.7338257
0.3835862, -0.0095674, 0.4635, -0.0292058, 11.124, 0.4918213, 11.124, 0.352417, 11.124, 0.3193359, 11.124, 0.7293701
0.3840517, -0.0109102, 0.4640625, -0.0298772, 11.1375, 0.4828491, 11.1375, 0.3632812, 11.1375, 0.3355713, 11.1375, 0.7227173
0.3845172, -0.0114137, 0.464625, -0.0292058, 11.151, 0.4780273, 11.151, 0.3651733, 11.151, 0.343811, 11.151, 0.7210693
0.3849828, -0.0099031, 0.4651875, -0.0285344, 11.1645, 0.4731445, 11.1645, 0.3660278, 11.1645, 0.3504639, 11.1645, 0.7206421
0.3854483, -0.0077211, 0.46575, -0.0271916, 11.178, 0.4658203, 11.178, 0.3745117, 11.178, 0.3579102, 11.178, 0.7174072
0.3859138, -0.0065461, 0.4663125, -0.0285344, 11.1915, 0.4648438, 11.1915, 0.3778076, 11.1915, 0.3572998, 11.1915, 0.7166138
0.3863793, -0.0075532, 0.466875, -0.0302129, 11.205, 0.4656982, 11.205, 0.3774414, 11.205, 0.3536987, 11.205, 0.7180176
0.3868448, -0.0082246, 0.4674375, -0.0285344, 11.2185, 0.4672852, 11.2185, 0.3771973, 11.2185, 0.3516846, 11.2185, 0.7181396
0.3873103, -0.0080568, 0.468, -0.024506, 11.232, 0.4696655, 11.232, 0.3771362, 11.232, 0.3479004, 11.232, 0.7184448
0.3877759, -0.0080568, 0.4685625, -0.0248417, 11.2455, 0.4766235, 11.2455, 0.3756104, 11.2455, 0.3361206, 11.2455, 0.7202759
0.3882414, -0.0077211, 0.469125, -0.0248417, 11.259, 0.4807129, 11.259, 0.3729248, 11.259, 0.3293457, 11.259, 0.7220459
0.3887069, -0.0068818, 0.4696875, -0.0271916, 11.2725, 0.4905396, 11.2725, 0.3667603, 11.2725, 0.3123779, 11.2725, 0.7261353
0.3891724, -0.0073854, 0.47025, -0.0285344, 11.286, 0.4968262, 11.286, 0.3651123, 11.286, 0.3015137, 11.286, 0.7272949
0.3896379, -0.0073854, 0.4708125, -0.0261845, 11.2995, 0.5036011, 11.2995, 0.3638916, 11.2995, 0.2893066, 11.2995, 0.7282104
0.3901034, -0.0058747, 0.471375, -0.0271916, 11.313, 0.5168457, 11.313, 0.3597412, 11.313, 0.2637939, 11.313, 0.7306519
